digraph Tree {
node [shape=box, fontname="helvetica"] ;
edge [fontname="helvetica"] ;
0 [label="binary_sensor.0x00158d00066941c9_occupancy_off <= 0.5\ngini = 0.888\nsamples = 2592\nvalue = [461, 41, 466, 87, 82, 239, 2, 238, 170, 214, 192\n223, 173, 2, 2]"] ;
1 [label="binary_sensor.0x00158d0001e4ad46_occupancy_on <= 0.5\ngini = 0.893\nsamples = 1249\nvalue = [38, 14, 65, 56, 36, 161, 1, 172, 124, 176, 119\n161, 124, 1, 1]"] ;
0 -> 1 [labeldistance=2.5, labelangle=45, headlabel="True"] ;
2 [label="sensor.0x00158d00066941c9_illuminance_lux <= 50.5\ngini = 0.889\nsamples = 757\nvalue = [26, 13, 48, 41, 35, 36, 1, 132, 55, 121, 67, 109\n71, 1, 1]"] ;
1 -> 2 ;
3 [label="hour_14 <= 0.5\ngini = 0.869\nsamples = 683\nvalue = [25, 12, 46, 40, 1, 1, 1, 132, 55, 121, 67, 109\n71, 1, 1]"] ;
2 -> 3 ;
4 [label="hour_15 <= 0.5\ngini = 0.864\nsamples = 661\nvalue = [22, 12, 37, 30, 1, 1, 1, 132, 55, 121, 67, 109\n71, 1, 1]"] ;
3 -> 4 ;
5 [label="hour_18 <= 0.5\ngini = 0.861\nsamples = 649\nvalue = [21, 12, 31, 25, 1, 1, 1, 132, 55, 121, 67, 109\n71, 1, 1]"] ;
4 -> 5 ;
6 [label="hour_8 <= 0.5\ngini = 0.854\nsamples = 592\nvalue = [20, 12, 25, 18, 1, 1, 1, 128, 45, 113, 60, 106\n60, 1, 1]"] ;
5 -> 6 ;
7 [label="device_tracker.chris_phone_not_home <= 0.5\ngini = 0.852\nsamples = 586\nvalue = [16, 11, 24, 18, 1, 1, 1, 128, 45, 113, 60, 106\n60, 1, 1]"] ;
6 -> 7 ;
8 [label="weekday_3 <= 0.5\ngini = 0.877\nsamples = 208\nvalue = [8, 5, 15, 11, 1, 1, 1, 39, 16, 36, 19, 25, 29\n1, 1]"] ;
7 -> 8 ;
9 [label="sensor.0x00158d0001e4ad46_illuminance_lux <= 7.5\ngini = 0.87\nsamples = 199\nvalue = [6, 4, 11, 9, 1, 1, 1, 39, 16, 36, 19, 25, 29\n1, 1]"] ;
8 -> 9 ;
10 [label="gini = 0.843\nsamples = 11\nvalue = [2, 2, 2, 2, 0, 0, 1, 0, 0, 0, 0, 0, 0, 1\n1]"] ;
9 -> 10 ;
11 [label="minute_16 <= 0.5\ngini = 0.857\nsamples = 188\nvalue = [4, 2, 9, 7, 1, 1, 0, 39, 16, 36, 19, 25, 29\n0, 0]"] ;
9 -> 11 ;
12 [label="weekday_4 <= 0.5\ngini = 0.852\nsamples = 184\nvalue = [4, 2, 7, 5, 1, 1, 0, 39, 16, 36, 19, 25, 29\n0, 0]"] ;
11 -> 12 ;
13 [label="weather.home_partlycloudy <= 0.5\ngini = 0.835\nsamples = 100\nvalue = [3, 1, 3, 1, 0, 0, 0, 22, 8, 21, 11, 21, 9, 0\n0]"] ;
12 -> 13 ;
14 [label="minute_23 <= 0.5\ngini = 0.785\nsamples = 60\nvalue = [2, 1, 1, 0, 0, 0, 0, 16, 2, 13, 7, 17, 1, 0\n0]"] ;
13 -> 14 ;
15 [label="minute_40 <= 0.5\ngini = 0.778\nsamples = 59\nvalue = [2, 1, 0, 0, 0, 0, 0, 16, 2, 13, 7, 17, 1, 0\n0]"] ;
14 -> 15 ;
16 [label="binary_sensor.0x00158d00045d21c2_occupancy_on <= 0.5\ngini = 0.771\nsamples = 58\nvalue = [1, 1, 0, 0, 0, 0, 0, 16, 2, 13, 7, 17, 1, 0\n0]"] ;
15 -> 16 ;
17 [label="minute_11 <= 0.5\ngini = 0.725\nsamples = 20\nvalue = [1, 1, 0, 0, 0, 0, 0, 6, 0, 6, 0, 6, 0, 0\n0]"] ;
16 -> 17 ;
18 [label="gini = 0.667\nsamples = 12\nvalue = [0, 0, 0, 0, 0, 0, 0, 4, 0, 4, 0, 4, 0, 0\n0]"] ;
17 -> 18 ;
19 [label="gini = 0.781\nsamples = 8\nvalue = [1, 1, 0, 0, 0, 0, 0, 2, 0, 2, 0, 2, 0, 0\n0]"] ;
17 -> 19 ;
20 [label="hour_0 <= 0.5\ngini = 0.776\nsamples = 38\nvalue = [0, 0, 0, 0, 0, 0, 0, 10, 2, 7, 7, 11, 1, 0\n0]"] ;
16 -> 20 ;
21 [label="gini = 0.72\nsamples = 10\nvalue = [0, 0, 0, 0, 0, 0, 0, 3, 0, 1, 3, 3, 0, 0\n0]"] ;
20 -> 21 ;
22 [label="gini = 0.783\nsamples = 28\nvalue = [0, 0, 0, 0, 0, 0, 0, 7, 2, 6, 4, 8, 1, 0\n0]"] ;
20 -> 22 ;
23 [label="gini = 0.0\nsamples = 1\nvalue = [1, 0, 0, 0, 0, 0, 0, 0, 0, 0, 0, 0, 0, 0\n0]"] ;
15 -> 23 ;
24 [label="gini = 0.0\nsamples = 1\nvalue = [0, 0, 1, 0, 0, 0, 0, 0, 0, 0, 0, 0, 0, 0\n0]"] ;
14 -> 24 ;
25 [label="second_33 <= 0.5\ngini = 0.851\nsamples = 40\nvalue = [1, 0, 2, 1, 0, 0, 0, 6, 6, 8, 4, 4, 8, 0\n0]"] ;
13 -> 25 ;
26 [label="gini = 0.625\nsamples = 4\nvalue = [1, 0, 2, 1, 0, 0, 0, 0, 0, 0, 0, 0, 0, 0\n0]"] ;
25 -> 26 ;
27 [label="gini = 0.821\nsamples = 36\nvalue = [0, 0, 0, 0, 0, 0, 0, 6, 6, 8, 4, 4, 8, 0\n0]"] ;
25 -> 27 ;
28 [label="binary_sensor.0x00158d00045d21c2_occupancy_on <= 0.5\ngini = 0.845\nsamples = 84\nvalue = [1, 1, 4, 4, 1, 1, 0, 17, 8, 15, 8, 4, 20, 0\n0]"] ;
12 -> 28 ;
29 [label="sensor.0x00158d0001e4ad46_illuminance_lux <= 15.5\ngini = 0.811\nsamples = 75\nvalue = [0, 0, 1, 0, 1, 1, 0, 17, 8, 15, 8, 4, 20, 0\n0]"] ;
28 -> 29 ;
30 [label="gini = 0.792\nsamples = 12\nvalue = [0, 0, 0, 0, 1, 1, 0, 1, 3, 0, 3, 0, 3, 0\n0]"] ;
29 -> 30 ;
31 [label="minute_55 <= 0.5\ngini = 0.789\nsamples = 63\nvalue = [0, 0, 1, 0, 0, 0, 0, 16, 5, 15, 5, 4, 17, 0\n0]"] ;
29 -> 31 ;
32 [label="weather.home_partlycloudy <= 0.5\ngini = 0.783\nsamples = 62\nvalue = [0, 0, 0, 0, 0, 0, 0, 16, 5, 15, 5, 4, 17, 0\n0]"] ;
31 -> 32 ;
33 [label="gini = 0.795\nsamples = 53\nvalue = [0, 0, 0, 0, 0, 0, 0, 13, 5, 12, 5, 4, 14, 0\n0]"] ;
32 -> 33 ;
34 [label="gini = 0.667\nsamples = 9\nvalue = [0, 0, 0, 0, 0, 0, 0, 3, 0, 3, 0, 0, 3, 0\n0]"] ;
32 -> 34 ;
35 [label="gini = 0.0\nsamples = 1\nvalue = [0, 0, 1, 0, 0, 0, 0, 0, 0, 0, 0, 0, 0, 0\n0]"] ;
31 -> 35 ;
36 [label="gini = 0.667\nsamples = 9\nvalue = [1, 1, 3, 4, 0, 0, 0, 0, 0, 0, 0, 0, 0, 0\n0]"] ;
28 -> 36 ;
37 [label="gini = 0.5\nsamples = 4\nvalue = [0, 0, 2, 2, 0, 0, 0, 0, 0, 0, 0, 0, 0, 0\n0]"] ;
11 -> 37 ;
38 [label="gini = 0.691\nsamples = 9\nvalue = [2, 1, 4, 2, 0, 0, 0, 0, 0, 0, 0, 0, 0, 0\n0]"] ;
8 -> 38 ;
39 [label="sensor.0x00158d0001e4ad46_illuminance_lux <= 56.0\ngini = 0.831\nsamples = 378\nvalue = [8, 6, 9, 7, 0, 0, 0, 89, 29, 77, 41, 81, 31\n0, 0]"] ;
7 -> 39 ;
40 [label="weekday_6 <= 0.5\ngini = 0.828\nsamples = 374\nvalue = [8, 6, 7, 5, 0, 0, 0, 89, 29, 77, 41, 81, 31\n0, 0]"] ;
39 -> 40 ;
41 [label="binary_sensor.0x00158d00045d21c2_occupancy_off <= 0.5\ngini = 0.823\nsamples = 295\nvalue = [7, 6, 4, 2, 0, 0, 0, 74, 18, 56, 40, 65, 23\n0, 0]"] ;
40 -> 41 ;
42 [label="weekday_2 <= 0.5\ngini = 0.846\nsamples = 187\nvalue = [6, 6, 3, 2, 0, 0, 0, 43, 16, 33, 24, 33, 21\n0, 0]"] ;
41 -> 42 ;
43 [label="sensor.0x00158d00066941c9_illuminance_lux <= 16.5\ngini = 0.837\nsamples = 181\nvalue = [4, 4, 2, 1, 0, 0, 0, 43, 16, 33, 24, 33, 21\n0, 0]"] ;
42 -> 43 ;
44 [label="gini = 0.64\nsamples = 5\nvalue = [2, 2, 1, 0, 0, 0, 0, 0, 0, 0, 0, 0, 0, 0\n0]"] ;
43 -> 44 ;
45 [label="hour_2 <= 0.5\ngini = 0.829\nsamples = 176\nvalue = [2, 2, 1, 1, 0, 0, 0, 43, 16, 33, 24, 33, 21\n0, 0]"] ;
43 -> 45 ;
46 [label="hour_0 <= 0.5\ngini = 0.826\nsamples = 124\nvalue = [0, 0, 1, 1, 0, 0, 0, 30, 14, 25, 14, 19, 20\n0, 0]"] ;
45 -> 46 ;
47 [label="second_14 <= 0.5\ngini = 0.82\nsamples = 122\nvalue = [0, 0, 0, 0, 0, 0, 0, 30, 14, 25, 14, 19, 20\n0, 0]"] ;
46 -> 47 ;
48 [label="weather.home_partlycloudy <= 0.5\ngini = 0.818\nsamples = 108\nvalue = [0, 0, 0, 0, 0, 0, 0, 28, 11, 21, 14, 18, 16\n0, 0]"] ;
47 -> 48 ;
49 [label="gini = 0.816\nsamples = 96\nvalue = [0, 0, 0, 0, 0, 0, 0, 26, 9, 18, 13, 15, 15\n0, 0]"] ;
48 -> 49 ;
50 [label="gini = 0.806\nsamples = 12\nvalue = [0, 0, 0, 0, 0, 0, 0, 2, 2, 3, 1, 3, 1, 0\n0]"] ;
48 -> 50 ;
51 [label="gini = 0.765\nsamples = 14\nvalue = [0, 0, 0, 0, 0, 0, 0, 2, 3, 4, 0, 1, 4, 0\n0]"] ;
47 -> 51 ;
52 [label="gini = 0.5\nsamples = 2\nvalue = [0, 0, 1, 1, 0, 0, 0, 0, 0, 0, 0, 0, 0, 0\n0]"] ;
46 -> 52 ;
53 [label="minute_33 <= 0.5\ngini = 0.8\nsamples = 52\nvalue = [2, 2, 0, 0, 0, 0, 0, 13, 2, 8, 10, 14, 1, 0\n0]"] ;
45 -> 53 ;
54 [label="second_40 <= 0.5\ngini = 0.786\nsamples = 50\nvalue = [1, 1, 0, 0, 0, 0, 0, 13, 2, 8, 10, 14, 1, 0\n0]"] ;
53 -> 54 ;
55 [label="minute_56 <= 0.5\ngini = 0.768\nsamples = 48\nvalue = [0, 0, 0, 0, 0, 0, 0, 13, 2, 8, 10, 14, 1, 0\n0]"] ;
54 -> 55 ;
56 [label="second_34 <= 0.5\ngini = 0.77\nsamples = 38\nvalue = [0, 0, 0, 0, 0, 0, 0, 10, 2, 5, 9, 11, 1, 0\n0]"] ;
55 -> 56 ;
57 [label="minute_8 <= 0.5\ngini = 0.72\nsamples = 20\nvalue = [0, 0, 0, 0, 0, 0, 0, 6, 0, 2, 6, 6, 0, 0\n0]"] ;
56 -> 57 ;
58 [label="gini = 0.72\nsamples = 10\nvalue = [0, 0, 0, 0, 0, 0, 0, 3, 0, 1, 3, 3, 0, 0\n0]"] ;
57 -> 58 ;
59 [label="gini = 0.72\nsamples = 10\nvalue = [0, 0, 0, 0, 0, 0, 0, 3, 0, 1, 3, 3, 0, 0\n0]"] ;
57 -> 59 ;
60 [label="gini = 0.802\nsamples = 18\nvalue = [0, 0, 0, 0, 0, 0, 0, 4, 2, 3, 3, 5, 1, 0\n0]"] ;
56 -> 60 ;
61 [label="gini = 0.72\nsamples = 10\nvalue = [0, 0, 0, 0, 0, 0, 0, 3, 0, 3, 1, 3, 0, 0\n0]"] ;
55 -> 61 ;
62 [label="gini = 0.5\nsamples = 2\nvalue = [1, 1, 0, 0, 0, 0, 0, 0, 0, 0, 0, 0, 0, 0\n0]"] ;
54 -> 62 ;
63 [label="gini = 0.5\nsamples = 2\nvalue = [1, 1, 0, 0, 0, 0, 0, 0, 0, 0, 0, 0, 0, 0\n0]"] ;
53 -> 63 ;
64 [label="gini = 0.722\nsamples = 6\nvalue = [2, 2, 1, 1, 0, 0, 0, 0, 0, 0, 0, 0, 0, 0\n0]"] ;
42 -> 64 ;
65 [label="minute_52 <= 0.5\ngini = 0.762\nsamples = 108\nvalue = [1, 0, 1, 0, 0, 0, 0, 31, 2, 23, 16, 32, 2, 0\n0]"] ;
41 -> 65 ;
66 [label="hour_10 <= 0.5\ngini = 0.753\nsamples = 106\nvalue = [0, 0, 0, 0, 0, 0, 0, 31, 2, 23, 16, 32, 2, 0\n0]"] ;
65 -> 66 ;
67 [label="weather.home_sunny <= 0.5\ngini = 0.749\nsamples = 82\nvalue = [0, 0, 0, 0, 0, 0, 0, 24, 2, 20, 9, 25, 2, 0\n0]"] ;
66 -> 67 ;
68 [label="sensor.0x00158d00066941c9_illuminance_lux <= 16.5\ngini = 0.729\nsamples = 58\nvalue = [0, 0, 0, 0, 0, 0, 0, 18, 0, 15, 6, 18, 1, 0\n0]"] ;
67 -> 68 ;
69 [label="gini = 0.734\nsamples = 16\nvalue = [0, 0, 0, 0, 0, 0, 0, 5, 0, 3, 3, 5, 0, 0\n0]"] ;
68 -> 69 ;
70 [label="hour_17 <= 0.5\ngini = 0.721\nsamples = 42\nvalue = [0, 0, 0, 0, 0, 0, 0, 13, 0, 12, 3, 13, 1, 0\n0]"] ;
68 -> 70 ;
71 [label="second_15 <= 0.5\ngini = 0.689\nsamples = 28\nvalue = [0, 0, 0, 0, 0, 0, 0, 9, 0, 9, 1, 9, 0, 0\n0]"] ;
70 -> 71 ;
72 [label="gini = 0.667\nsamples = 18\nvalue = [0, 0, 0, 0, 0, 0, 0, 6, 0, 6, 0, 6, 0, 0\n0]"] ;
71 -> 72 ;
73 [label="gini = 0.72\nsamples = 10\nvalue = [0, 0, 0, 0, 0, 0, 0, 3, 0, 3, 1, 3, 0, 0\n0]"] ;
71 -> 73 ;
74 [label="gini = 0.765\nsamples = 14\nvalue = [0, 0, 0, 0, 0, 0, 0, 4, 0, 3, 2, 4, 1, 0\n0]"] ;
70 -> 74 ;
75 [label="gini = 0.785\nsamples = 24\nvalue = [0, 0, 0, 0, 0, 0, 0, 6, 2, 5, 3, 7, 1, 0\n0]"] ;
67 -> 75 ;
76 [label="gini = 0.729\nsamples = 24\nvalue = [0, 0, 0, 0, 0, 0, 0, 7, 0, 3, 7, 7, 0, 0\n0]"] ;
66 -> 76 ;
77 [label="gini = 0.5\nsamples = 2\nvalue = [1, 0, 1, 0, 0, 0, 0, 0, 0, 0, 0, 0, 0, 0\n0]"] ;
65 -> 77 ;
78 [label="sensor.0x00158d00066941c9_illuminance_lux <= 20.5\ngini = 0.819\nsamples = 79\nvalue = [1, 0, 3, 3, 0, 0, 0, 15, 11, 21, 1, 16, 8, 0\n0]"] ;
40 -> 78 ;
79 [label="gini = 0.444\nsamples = 3\nvalue = [0, 0, 1, 2, 0, 0, 0, 0, 0, 0, 0, 0, 0, 0\n0]"] ;
78 -> 79 ;
80 [label="second_4 <= 0.5\ngini = 0.807\nsamples = 76\nvalue = [1, 0, 2, 1, 0, 0, 0, 15, 11, 21, 1, 16, 8, 0\n0]"] ;
78 -> 80 ;
81 [label="minute_39 <= 0.5\ngini = 0.792\nsamples = 73\nvalue = [0, 0, 1, 0, 0, 0, 0, 15, 11, 21, 1, 16, 8, 0\n0]"] ;
80 -> 81 ;
82 [label="sensor.0x00158d0001e4ad46_illuminance_lux <= 11.5\ngini = 0.786\nsamples = 72\nvalue = [0, 0, 0, 0, 0, 0, 0, 15, 11, 21, 1, 16, 8, 0\n0]"] ;
81 -> 82 ;
83 [label="gini = 0.72\nsamples = 10\nvalue = [0, 0, 0, 0, 0, 0, 0, 1, 3, 3, 0, 3, 0, 0\n0]"] ;
82 -> 83 ;
84 [label="minute_42 <= 0.5\ngini = 0.787\nsamples = 62\nvalue = [0, 0, 0, 0, 0, 0, 0, 14, 8, 18, 1, 13, 8, 0\n0]"] ;
82 -> 84 ;
85 [label="hour_17 <= 0.5\ngini = 0.772\nsamples = 34\nvalue = [0, 0, 0, 0, 0, 0, 0, 9, 3, 10, 1, 8, 3, 0\n0]"] ;
84 -> 85 ;
86 [label="gini = 0.72\nsamples = 10\nvalue = [0, 0, 0, 0, 0, 0, 0, 3, 1, 3, 0, 3, 0, 0\n0]"] ;
85 -> 86 ;
87 [label="gini = 0.785\nsamples = 24\nvalue = [0, 0, 0, 0, 0, 0, 0, 6, 2, 7, 1, 5, 3, 0\n0]"] ;
85 -> 87 ;
88 [label="sensor.0x00158d00066941c9_illuminance_lux <= 28.5\ngini = 0.791\nsamples = 28\nvalue = [0, 0, 0, 0, 0, 0, 0, 5, 5, 8, 0, 5, 5, 0\n0]"] ;
84 -> 88 ;
89 [label="gini = 0.765\nsamples = 14\nvalue = [0, 0, 0, 0, 0, 0, 0, 4, 1, 4, 0, 3, 2, 0\n0]"] ;
88 -> 89 ;
90 [label="gini = 0.765\nsamples = 14\nvalue = [0, 0, 0, 0, 0, 0, 0, 1, 4, 4, 0, 2, 3, 0\n0]"] ;
88 -> 90 ;
91 [label="gini = 0.0\nsamples = 1\nvalue = [0, 0, 1, 0, 0, 0, 0, 0, 0, 0, 0, 0, 0, 0\n0]"] ;
81 -> 91 ;
92 [label="gini = 0.667\nsamples = 3\nvalue = [1, 0, 1, 1, 0, 0, 0, 0, 0, 0, 0, 0, 0, 0\n0]"] ;
80 -> 92 ;
93 [label="gini = 0.5\nsamples = 4\nvalue = [0, 0, 2, 2, 0, 0, 0, 0, 0, 0, 0, 0, 0, 0\n0]"] ;
39 -> 93 ;
94 [label="gini = 0.5\nsamples = 6\nvalue = [4, 1, 1, 0, 0, 0, 0, 0, 0, 0, 0, 0, 0, 0\n0]"] ;
6 -> 94 ;
95 [label="sensor.0x00158d0001e4ad46_illuminance_lux <= 53.0\ngini = 0.863\nsamples = 57\nvalue = [1, 0, 6, 7, 0, 0, 0, 4, 10, 8, 7, 3, 11, 0\n0]"] ;
5 -> 95 ;
96 [label="gini = 0.569\nsamples = 12\nvalue = [1, 0, 5, 6, 0, 0, 0, 0, 0, 0, 0, 0, 0, 0\n0]"] ;
95 -> 96 ;
97 [label="sensor.0x00158d0001e4ad46_illuminance_lux <= 90.5\ngini = 0.822\nsamples = 45\nvalue = [0, 0, 1, 1, 0, 0, 0, 4, 10, 8, 7, 3, 11, 0\n0]"] ;
95 -> 97 ;
98 [label="second_28 <= 0.5\ngini = 0.806\nsamples = 43\nvalue = [0, 0, 0, 0, 0, 0, 0, 4, 10, 8, 7, 3, 11, 0\n0]"] ;
97 -> 98 ;
99 [label="gini = 0.811\nsamples = 34\nvalue = [0, 0, 0, 0, 0, 0, 0, 4, 7, 8, 4, 3, 8, 0\n0]"] ;
98 -> 99 ;
100 [label="gini = 0.667\nsamples = 9\nvalue = [0, 0, 0, 0, 0, 0, 0, 0, 3, 0, 3, 0, 3, 0\n0]"] ;
98 -> 100 ;
101 [label="gini = 0.5\nsamples = 2\nvalue = [0, 0, 1, 1, 0, 0, 0, 0, 0, 0, 0, 0, 0, 0\n0]"] ;
97 -> 101 ;
102 [label="gini = 0.569\nsamples = 12\nvalue = [1, 0, 6, 5, 0, 0, 0, 0, 0, 0, 0, 0, 0, 0\n0]"] ;
4 -> 102 ;
103 [label="binary_sensor.0x00158d00045d21c2_occupancy_off <= 0.5\ngini = 0.607\nsamples = 22\nvalue = [3, 0, 9, 10, 0, 0, 0, 0, 0, 0, 0, 0, 0, 0\n0]"] ;
3 -> 103 ;
104 [label="gini = 0.463\nsamples = 11\nvalue = [0, 0, 4, 7, 0, 0, 0, 0, 0, 0, 0, 0, 0, 0\n0]"] ;
103 -> 104 ;
105 [label="gini = 0.645\nsamples = 11\nvalue = [3, 0, 5, 3, 0, 0, 0, 0, 0, 0, 0, 0, 0, 0\n0]"] ;
103 -> 105 ;
106 [label="second_11 <= 0.5\ngini = 0.564\nsamples = 74\nvalue = [1, 1, 2, 1, 34, 35, 0, 0, 0, 0, 0, 0, 0, 0\n0]"] ;
2 -> 106 ;
107 [label="minute_28 <= 0.5\ngini = 0.529\nsamples = 67\nvalue = [0, 1, 1, 0, 32, 33, 0, 0, 0, 0, 0, 0, 0, 0\n0]"] ;
106 -> 107 ;
108 [label="second_19 <= 0.5\ngini = 0.516\nsamples = 62\nvalue = [0, 0, 1, 0, 30, 31, 0, 0, 0, 0, 0, 0, 0, 0\n0]"] ;
107 -> 108 ;
109 [label="minute_8 <= 0.5\ngini = 0.5\nsamples = 57\nvalue = [0, 0, 0, 0, 28, 29, 0, 0, 0, 0, 0, 0, 0, 0\n0]"] ;
108 -> 109 ;
110 [label="second_44 <= 0.5\ngini = 0.5\nsamples = 54\nvalue = [0, 0, 0, 0, 27, 27, 0, 0, 0, 0, 0, 0, 0, 0\n0]"] ;
109 -> 110 ;
111 [label="minute_20 <= 0.5\ngini = 0.5\nsamples = 52\nvalue = [0, 0, 0, 0, 26, 26, 0, 0, 0, 0, 0, 0, 0, 0\n0]"] ;
110 -> 111 ;
112 [label="hour_13 <= 0.5\ngini = 0.5\nsamples = 48\nvalue = [0, 0, 0, 0, 24, 24, 0, 0, 0, 0, 0, 0, 0, 0\n0]"] ;
111 -> 112 ;
113 [label="minute_29 <= 0.5\ngini = 0.5\nsamples = 46\nvalue = [0, 0, 0, 0, 23, 23, 0, 0, 0, 0, 0, 0, 0, 0\n0]"] ;
112 -> 113 ;
114 [label="second_57 <= 0.5\ngini = 0.5\nsamples = 44\nvalue = [0, 0, 0, 0, 22, 22, 0, 0, 0, 0, 0, 0, 0, 0\n0]"] ;
113 -> 114 ;
115 [label="minute_30 <= 0.5\ngini = 0.5\nsamples = 42\nvalue = [0, 0, 0, 0, 21, 21, 0, 0, 0, 0, 0, 0, 0, 0\n0]"] ;
114 -> 115 ;
116 [label="hour_21 <= 0.5\ngini = 0.5\nsamples = 40\nvalue = [0, 0, 0, 0, 20, 20, 0, 0, 0, 0, 0, 0, 0, 0\n0]"] ;
115 -> 116 ;
117 [label="weather.home_partlycloudy <= 0.5\ngini = 0.5\nsamples = 36\nvalue = [0, 0, 0, 0, 18, 18, 0, 0, 0, 0, 0, 0, 0, 0\n0]"] ;
116 -> 117 ;
118 [label="weekday_6 <= 0.5\ngini = 0.5\nsamples = 26\nvalue = [0, 0, 0, 0, 13, 13, 0, 0, 0, 0, 0, 0, 0, 0\n0]"] ;
117 -> 118 ;
119 [label="gini = 0.5\nsamples = 18\nvalue = [0, 0, 0, 0, 9, 9, 0, 0, 0, 0, 0, 0, 0, 0\n0]"] ;
118 -> 119 ;
120 [label="gini = 0.5\nsamples = 8\nvalue = [0, 0, 0, 0, 4, 4, 0, 0, 0, 0, 0, 0, 0, 0\n0]"] ;
118 -> 120 ;
121 [label="gini = 0.5\nsamples = 10\nvalue = [0, 0, 0, 0, 5, 5, 0, 0, 0, 0, 0, 0, 0, 0\n0]"] ;
117 -> 121 ;
122 [label="gini = 0.5\nsamples = 4\nvalue = [0, 0, 0, 0, 2, 2, 0, 0, 0, 0, 0, 0, 0, 0\n0]"] ;
116 -> 122 ;
123 [label="gini = 0.5\nsamples = 2\nvalue = [0, 0, 0, 0, 1, 1, 0, 0, 0, 0, 0, 0, 0, 0\n0]"] ;
115 -> 123 ;
124 [label="gini = 0.5\nsamples = 2\nvalue = [0, 0, 0, 0, 1, 1, 0, 0, 0, 0, 0, 0, 0, 0\n0]"] ;
114 -> 124 ;
125 [label="gini = 0.5\nsamples = 2\nvalue = [0, 0, 0, 0, 1, 1, 0, 0, 0, 0, 0, 0, 0, 0\n0]"] ;
113 -> 125 ;
126 [label="gini = 0.5\nsamples = 2\nvalue = [0, 0, 0, 0, 1, 1, 0, 0, 0, 0, 0, 0, 0, 0\n0]"] ;
112 -> 126 ;
127 [label="gini = 0.5\nsamples = 4\nvalue = [0, 0, 0, 0, 2, 2, 0, 0, 0, 0, 0, 0, 0, 0\n0]"] ;
111 -> 127 ;
128 [label="gini = 0.5\nsamples = 2\nvalue = [0, 0, 0, 0, 1, 1, 0, 0, 0, 0, 0, 0, 0, 0\n0]"] ;
110 -> 128 ;
129 [label="gini = 0.444\nsamples = 3\nvalue = [0, 0, 0, 0, 1, 2, 0, 0, 0, 0, 0, 0, 0, 0\n0]"] ;
109 -> 129 ;
130 [label="gini = 0.64\nsamples = 5\nvalue = [0, 0, 1, 0, 2, 2, 0, 0, 0, 0, 0, 0, 0, 0\n0]"] ;
108 -> 130 ;
131 [label="gini = 0.64\nsamples = 5\nvalue = [0, 1, 0, 0, 2, 2, 0, 0, 0, 0, 0, 0, 0, 0\n0]"] ;
107 -> 131 ;
132 [label="gini = 0.776\nsamples = 7\nvalue = [1, 0, 1, 1, 2, 2, 0, 0, 0, 0, 0, 0, 0, 0\n0]"] ;
106 -> 132 ;
133 [label="sensor.0x00158d00066941c9_illuminance_lux <= 49.0\ngini = 0.86\nsamples = 492\nvalue = [12, 1, 17, 15, 1, 125, 0, 40, 69, 55, 52, 52\n53, 0, 0]"] ;
1 -> 133 ;
134 [label="minute_33 <= 0.5\ngini = 0.378\nsamples = 144\nvalue = [4, 0, 7, 5, 1, 113, 0, 0, 4, 1, 4, 2, 3, 0\n0]"] ;
133 -> 134 ;
135 [label="minute_4 <= 0.5\ngini = 0.246\nsamples = 126\nvalue = [4, 0, 7, 5, 1, 109, 0, 0, 0, 0, 0, 0, 0, 0\n0]"] ;
134 -> 135 ;
136 [label="second_2 <= 0.5\ngini = 0.223\nsamples = 124\nvalue = [3, 0, 6, 5, 1, 109, 0, 0, 0, 0, 0, 0, 0, 0\n0]"] ;
135 -> 136 ;
137 [label="minute_7 <= 0.5\ngini = 0.211\nsamples = 123\nvalue = [3, 0, 6, 4, 1, 109, 0, 0, 0, 0, 0, 0, 0, 0\n0]"] ;
136 -> 137 ;
138 [label="minute_23 <= 0.5\ngini = 0.175\nsamples = 118\nvalue = [2, 0, 5, 3, 1, 107, 0, 0, 0, 0, 0, 0, 0, 0\n0]"] ;
137 -> 138 ;
139 [label="second_10 <= 0.5\ngini = 0.137\nsamples = 111\nvalue = [1, 0, 4, 2, 1, 103, 0, 0, 0, 0, 0, 0, 0, 0\n0]"] ;
138 -> 139 ;
140 [label="minute_45 <= 0.5\ngini = 0.108\nsamples = 107\nvalue = [1, 0, 3, 1, 1, 101, 0, 0, 0, 0, 0, 0, 0, 0\n0]"] ;
139 -> 140 ;
141 [label="minute_29 <= 0.5\ngini = 0.076\nsamples = 103\nvalue = [1, 0, 2, 0, 1, 99, 0, 0, 0, 0, 0, 0, 0, 0\n0]"] ;
140 -> 141 ;
142 [label="second_19 <= 0.5\ngini = 0.058\nsamples = 101\nvalue = [1, 0, 2, 0, 0, 98, 0, 0, 0, 0, 0, 0, 0, 0\n0]"] ;
141 -> 142 ;
143 [label="minute_28 <= 0.5\ngini = 0.04\nsamples = 98\nvalue = [0, 0, 2, 0, 0, 96, 0, 0, 0, 0, 0, 0, 0, 0\n0]"] ;
142 -> 143 ;
144 [label="sensor.0x00158d00066941c9_illuminance_lux <= 39.5\ngini = 0.021\nsamples = 95\nvalue = [0, 0, 1, 0, 0, 94, 0, 0, 0, 0, 0, 0, 0, 0\n0]"] ;
143 -> 144 ;
145 [label="gini = 0.0\nsamples = 92\nvalue = [0, 0, 0, 0, 0, 92, 0, 0, 0, 0, 0, 0, 0, 0\n0]"] ;
144 -> 145 ;
146 [label="gini = 0.444\nsamples = 3\nvalue = [0, 0, 1, 0, 0, 2, 0, 0, 0, 0, 0, 0, 0, 0\n0]"] ;
144 -> 146 ;
147 [label="gini = 0.444\nsamples = 3\nvalue = [0, 0, 1, 0, 0, 2, 0, 0, 0, 0, 0, 0, 0, 0\n0]"] ;
143 -> 147 ;
148 [label="gini = 0.444\nsamples = 3\nvalue = [1, 0, 0, 0, 0, 2, 0, 0, 0, 0, 0, 0, 0, 0\n0]"] ;
142 -> 148 ;
149 [label="gini = 0.5\nsamples = 2\nvalue = [0, 0, 0, 0, 1, 1, 0, 0, 0, 0, 0, 0, 0, 0\n0]"] ;
141 -> 149 ;
150 [label="gini = 0.625\nsamples = 4\nvalue = [0, 0, 1, 1, 0, 2, 0, 0, 0, 0, 0, 0, 0, 0\n0]"] ;
140 -> 150 ;
151 [label="gini = 0.625\nsamples = 4\nvalue = [0, 0, 1, 1, 0, 2, 0, 0, 0, 0, 0, 0, 0, 0\n0]"] ;
139 -> 151 ;
152 [label="gini = 0.612\nsamples = 7\nvalue = [1, 0, 1, 1, 0, 4, 0, 0, 0, 0, 0, 0, 0, 0\n0]"] ;
138 -> 152 ;
153 [label="gini = 0.72\nsamples = 5\nvalue = [1, 0, 1, 1, 0, 2, 0, 0, 0, 0, 0, 0, 0, 0\n0]"] ;
137 -> 153 ;
154 [label="gini = 0.0\nsamples = 1\nvalue = [0, 0, 0, 1, 0, 0, 0, 0, 0, 0, 0, 0, 0, 0\n0]"] ;
136 -> 154 ;
155 [label="gini = 0.5\nsamples = 2\nvalue = [1, 0, 1, 0, 0, 0, 0, 0, 0, 0, 0, 0, 0, 0\n0]"] ;
135 -> 155 ;
156 [label="gini = 0.809\nsamples = 18\nvalue = [0, 0, 0, 0, 0, 4, 0, 0, 4, 1, 4, 2, 3, 0\n0]"] ;
134 -> 156 ;
157 [label="sensor.0x00158d00066941c9_illuminance_lux <= 62.5\ngini = 0.864\nsamples = 348\nvalue = [8, 1, 10, 10, 0, 12, 0, 40, 65, 54, 48, 50, 50\n0, 0]"] ;
133 -> 157 ;
158 [label="minute_11 <= 0.5\ngini = 0.855\nsamples = 335\nvalue = [5, 1, 8, 8, 0, 6, 0, 40, 65, 54, 48, 50, 50\n0, 0]"] ;
157 -> 158 ;
159 [label="minute_44 <= 0.5\ngini = 0.85\nsamples = 328\nvalue = [4, 1, 6, 6, 0, 4, 0, 40, 65, 54, 48, 50, 50\n0, 0]"] ;
158 -> 159 ;
160 [label="sensor.0x00158d0001e4ad46_illuminance_lux <= 88.0\ngini = 0.846\nsamples = 323\nvalue = [3, 1, 4, 4, 0, 4, 0, 40, 65, 54, 48, 50, 50\n0, 0]"] ;
159 -> 160 ;
161 [label="sensor.0x00158d0001e4ad46_illuminance_lux <= 5.5\ngini = 0.845\nsamples = 167\nvalue = [3, 1, 2, 1, 0, 4, 0, 18, 34, 20, 32, 30, 22\n0, 0]"] ;
160 -> 161 ;
162 [label="minute_42 <= 0.5\ngini = 0.812\nsamples = 86\nvalue = [0, 0, 0, 0, 0, 0, 0, 6, 23, 13, 16, 12, 16\n0, 0]"] ;
161 -> 162 ;
163 [label="sensor.0x00158d00066941c9_illuminance_lux <= 56.0\ngini = 0.803\nsamples = 66\nvalue = [0, 0, 0, 0, 0, 0, 0, 5, 17, 9, 13, 6, 16, 0\n0]"] ;
162 -> 163 ;
164 [label="gini = 0.785\nsamples = 24\nvalue = [0, 0, 0, 0, 0, 0, 0, 2, 6, 1, 7, 3, 5, 0\n0]"] ;
163 -> 164 ;
165 [label="hour_19 <= 0.5\ngini = 0.796\nsamples = 42\nvalue = [0, 0, 0, 0, 0, 0, 0, 3, 11, 8, 6, 3, 11, 0\n0]"] ;
163 -> 165 ;
166 [label="gini = 0.785\nsamples = 24\nvalue = [0, 0, 0, 0, 0, 0, 0, 1, 7, 5, 3, 2, 6, 0\n0]"] ;
165 -> 166 ;
167 [label="gini = 0.802\nsamples = 18\nvalue = [0, 0, 0, 0, 0, 0, 0, 2, 4, 3, 3, 1, 5, 0\n0]"] ;
165 -> 167 ;
168 [label="gini = 0.755\nsamples = 20\nvalue = [0, 0, 0, 0, 0, 0, 0, 1, 6, 4, 3, 6, 0, 0\n0]"] ;
162 -> 168 ;
169 [label="sensor.0x00158d00066941c9_illuminance_lux <= 58.5\ngini = 0.854\nsamples = 81\nvalue = [3, 1, 2, 1, 0, 4, 0, 12, 11, 7, 16, 18, 6, 0\n0]"] ;
161 -> 169 ;
170 [label="gini = 0.72\nsamples = 5\nvalue = [2, 1, 1, 1, 0, 0, 0, 0, 0, 0, 0, 0, 0, 0\n0]"] ;
169 -> 170 ;
171 [label="sensor.0x00158d0001e4ad46_illuminance_lux <= 12.0\ngini = 0.836\nsamples = 76\nvalue = [1, 0, 1, 0, 0, 4, 0, 12, 11, 7, 16, 18, 6, 0\n0]"] ;
169 -> 171 ;
172 [label="gini = 0.0\nsamples = 2\nvalue = [0, 0, 0, 0, 0, 2, 0, 0, 0, 0, 0, 0, 0, 0\n0]"] ;
171 -> 172 ;
173 [label="sensor.0x00158d00066941c9_illuminance_lux <= 60.5\ngini = 0.829\nsamples = 74\nvalue = [1, 0, 1, 0, 0, 2, 0, 12, 11, 7, 16, 18, 6, 0\n0]"] ;
171 -> 173 ;
174 [label="sensor.0x00158d0001e4ad46_illuminance_lux <= 51.5\ngini = 0.815\nsamples = 71\nvalue = [1, 0, 0, 0, 0, 0, 0, 12, 11, 7, 16, 18, 6, 0\n0]"] ;
173 -> 174 ;
175 [label="weather.home_partlycloudy <= 0.5\ngini = 0.807\nsamples = 46\nvalue = [0, 0, 0, 0, 0, 0, 0, 8, 7, 6, 9, 13, 3, 0\n0]"] ;
174 -> 175 ;
176 [label="gini = 0.804\nsamples = 28\nvalue = [0, 0, 0, 0, 0, 0, 0, 4, 5, 3, 6, 8, 2, 0\n0]"] ;
175 -> 176 ;
177 [label="gini = 0.802\nsamples = 18\nvalue = [0, 0, 0, 0, 0, 0, 0, 4, 2, 3, 3, 5, 1, 0\n0]"] ;
175 -> 177 ;
178 [label="gini = 0.813\nsamples = 25\nvalue = [1, 0, 0, 0, 0, 0, 0, 4, 4, 1, 7, 5, 3, 0\n0]"] ;
174 -> 178 ;
179 [label="gini = 0.444\nsamples = 3\nvalue = [0, 0, 1, 0, 0, 2, 0, 0, 0, 0, 0, 0, 0, 0\n0]"] ;
173 -> 179 ;
180 [label="sensor.0x00158d00066941c9_illuminance_lux <= 59.5\ngini = 0.833\nsamples = 156\nvalue = [0, 0, 2, 3, 0, 0, 0, 22, 31, 34, 16, 20, 28\n0, 0]"] ;
160 -> 180 ;
181 [label="device_tracker.chris_phone_not_home <= 0.5\ngini = 0.827\nsamples = 153\nvalue = [0, 0, 1, 1, 0, 0, 0, 22, 31, 34, 16, 20, 28\n0, 0]"] ;
180 -> 181 ;
182 [label="gini = 0.72\nsamples = 10\nvalue = [0, 0, 0, 0, 0, 0, 0, 1, 3, 0, 3, 0, 3, 0\n0]"] ;
181 -> 182 ;
183 [label="sensor.0x00158d00066941c9_illuminance_lux <= 56.0\ngini = 0.825\nsamples = 143\nvalue = [0, 0, 1, 1, 0, 0, 0, 21, 28, 34, 13, 20, 25\n0, 0]"] ;
181 -> 183 ;
184 [label="sensor.bedroom_entrance_illuminance_lux <= 0.5\ngini = 0.817\nsamples = 69\nvalue = [0, 0, 1, 1, 0, 0, 0, 11, 12, 17, 5, 6, 16, 0\n0]"] ;
183 -> 184 ;
185 [label="weekday_6 <= 0.5\ngini = 0.835\nsamples = 20\nvalue = [0, 0, 1, 1, 0, 0, 0, 2, 4, 3, 3, 1, 5, 0\n0]"] ;
184 -> 185 ;
186 [label="gini = 0.802\nsamples = 18\nvalue = [0, 0, 0, 0, 0, 0, 0, 2, 4, 3, 3, 1, 5, 0\n0]"] ;
185 -> 186 ;
187 [label="gini = 0.5\nsamples = 2\nvalue = [0, 0, 1, 1, 0, 0, 0, 0, 0, 0, 0, 0, 0, 0\n0]"] ;
185 -> 187 ;
188 [label="weather.home_partlycloudy <= 0.5\ngini = 0.796\nsamples = 49\nvalue = [0, 0, 0, 0, 0, 0, 0, 9, 8, 14, 2, 5, 11, 0\n0]"] ;
184 -> 188 ;
189 [label="gini = 0.811\nsamples = 29\nvalue = [0, 0, 0, 0, 0, 0, 0, 5, 5, 8, 2, 4, 5, 0\n0]"] ;
188 -> 189 ;
190 [label="gini = 0.755\nsamples = 20\nvalue = [0, 0, 0, 0, 0, 0, 0, 4, 3, 6, 0, 1, 6, 0\n0]"] ;
188 -> 190 ;
191 [label="weather.home_sunny <= 0.5\ngini = 0.82\nsamples = 74\nvalue = [0, 0, 0, 0, 0, 0, 0, 10, 16, 17, 8, 14, 9, 0\n0]"] ;
183 -> 191 ;
192 [label="gini = 0.72\nsamples = 10\nvalue = [0, 0, 0, 0, 0, 0, 0, 1, 3, 3, 0, 3, 0, 0\n0]"] ;
191 -> 192 ;
193 [label="gini = 0.826\nsamples = 64\nvalue = [0, 0, 0, 0, 0, 0, 0, 9, 13, 14, 8, 11, 9, 0\n0]"] ;
191 -> 193 ;
194 [label="gini = 0.444\nsamples = 3\nvalue = [0, 0, 1, 2, 0, 0, 0, 0, 0, 0, 0, 0, 0, 0\n0]"] ;
180 -> 194 ;
195 [label="gini = 0.64\nsamples = 5\nvalue = [1, 0, 2, 2, 0, 0, 0, 0, 0, 0, 0, 0, 0, 0\n0]"] ;
159 -> 195 ;
196 [label="gini = 0.735\nsamples = 7\nvalue = [1, 0, 2, 2, 0, 2, 0, 0, 0, 0, 0, 0, 0, 0\n0]"] ;
158 -> 196 ;
197 [label="gini = 0.686\nsamples = 13\nvalue = [3, 0, 2, 2, 0, 6, 0, 0, 0, 0, 0, 0, 0, 0\n0]"] ;
157 -> 197 ;
198 [label="binary_sensor.0x00158d0001e4ad46_occupancy_on <= 0.5\ngini = 0.795\nsamples = 1343\nvalue = [423, 27, 401, 31, 46, 78, 1, 66, 46, 38, 73, 62\n49, 1, 1]"] ;
0 -> 198 [labeldistance=2.5, labelangle=-45, headlabel="False"] ;
199 [label="sensor.0x00158d0001e4ad46_illuminance_lux <= 7.5\ngini = 0.787\nsamples = 1304\nvalue = [421, 27, 399, 30, 46, 44, 1, 66, 46, 38, 73, 62\n49, 1, 1]"] ;
198 -> 199 ;
200 [label="minute_22 <= 0.5\ngini = 0.6\nsamples = 372\nvalue = [180, 10, 151, 3, 3, 1, 0, 4, 4, 3, 5, 5, 3\n0, 0]"] ;
199 -> 200 ;
201 [label="sensor.0x00158d0001e4ad46_illuminance_lux <= 1.5\ngini = 0.557\nsamples = 346\nvalue = [176, 9, 148, 3, 3, 1, 0, 2, 0, 2, 0, 2, 0, 0\n0]"] ;
200 -> 201 ;
202 [label="gini = 0.812\nsamples = 16\nvalue = [4, 0, 4, 0, 2, 0, 0, 2, 0, 2, 0, 2, 0, 0\n0]"] ;
201 -> 202 ;
203 [label="minute_26 <= 0.5\ngini = 0.537\nsamples = 330\nvalue = [172, 9, 144, 3, 1, 1, 0, 0, 0, 0, 0, 0, 0, 0\n0]"] ;
201 -> 203 ;
204 [label="sensor.0x00158d00066941c9_illuminance_lux <= 21.5\ngini = 0.536\nsamples = 326\nvalue = [172, 9, 140, 3, 1, 1, 0, 0, 0, 0, 0, 0, 0, 0\n0]"] ;
203 -> 204 ;
205 [label="second_23 <= 0.5\ngini = 0.521\nsamples = 310\nvalue = [165, 5, 137, 1, 1, 1, 0, 0, 0, 0, 0, 0, 0, 0\n0]"] ;
204 -> 205 ;
206 [label="minute_55 <= 0.5\ngini = 0.52\nsamples = 307\nvalue = [165, 5, 134, 1, 1, 1, 0, 0, 0, 0, 0, 0, 0, 0\n0]"] ;
205 -> 206 ;
207 [label="minute_54 <= 0.5\ngini = 0.519\nsamples = 301\nvalue = [164, 5, 129, 1, 1, 1, 0, 0, 0, 0, 0, 0, 0, 0\n0]"] ;
206 -> 207 ;
208 [label="hour_16 <= 0.5\ngini = 0.521\nsamples = 297\nvalue = [160, 5, 129, 1, 1, 1, 0, 0, 0, 0, 0, 0, 0, 0\n0]"] ;
207 -> 208 ;
209 [label="minute_6 <= 0.5\ngini = 0.519\nsamples = 288\nvalue = [158, 5, 122, 1, 1, 1, 0, 0, 0, 0, 0, 0, 0, 0\n0]"] ;
208 -> 209 ;
210 [label="second_35 <= 0.5\ngini = 0.518\nsamples = 280\nvalue = [156, 5, 116, 1, 1, 1, 0, 0, 0, 0, 0, 0, 0, 0\n0]"] ;
209 -> 210 ;
211 [label="second_56 <= 0.5\ngini = 0.52\nsamples = 276\nvalue = [152, 5, 116, 1, 1, 1, 0, 0, 0, 0, 0, 0, 0, 0\n0]"] ;
210 -> 211 ;
212 [label="hour_1 <= 0.5\ngini = 0.522\nsamples = 272\nvalue = [148, 5, 116, 1, 1, 1, 0, 0, 0, 0, 0, 0, 0, 0\n0]"] ;
211 -> 212 ;
213 [label="binary_sensor.0x00158d00045d21c2_occupancy_on <= 0.5\ngini = 0.523\nsamples = 254\nvalue = [135, 4, 112, 1, 1, 1, 0, 0, 0, 0, 0, 0, 0, 0\n0]"] ;
212 -> 213 ;
214 [label="sensor.bedroom_entrance_illuminance_lux <= 1.5\ngini = 0.512\nsamples = 249\nvalue = [133, 4, 112, 0, 0, 0, 0, 0, 0, 0, 0, 0, 0, 0\n0]"] ;
213 -> 214 ;
215 [label="minute_58 <= 0.5\ngini = 0.517\nsamples = 88\nvalue = [52, 4, 32, 0, 0, 0, 0, 0, 0, 0, 0, 0, 0, 0\n0]"] ;
214 -> 215 ;
216 [label="minute_19 <= 0.5\ngini = 0.511\nsamples = 86\nvalue = [52, 4, 30, 0, 0, 0, 0, 0, 0, 0, 0, 0, 0, 0\n0]"] ;
215 -> 216 ;
217 [label="second_48 <= 0.5\ngini = 0.503\nsamples = 84\nvalue = [52, 4, 28, 0, 0, 0, 0, 0, 0, 0, 0, 0, 0, 0\n0]"] ;
216 -> 217 ;
218 [label="sensor.0x00158d0001e4ad46_illuminance_lux <= 6.5\ngini = 0.515\nsamples = 80\nvalue = [48, 4, 28, 0, 0, 0, 0, 0, 0, 0, 0, 0, 0, 0\n0]"] ;
217 -> 218 ;
219 [label="minute_13 <= 0.5\ngini = 0.391\nsamples = 30\nvalue = [22, 0, 8, 0, 0, 0, 0, 0, 0, 0, 0, 0, 0, 0\n0]"] ;
218 -> 219 ;
220 [label="second_33 <= 0.5\ngini = 0.366\nsamples = 29\nvalue = [22, 0, 7, 0, 0, 0, 0, 0, 0, 0, 0, 0, 0, 0\n0]"] ;
219 -> 220 ;
221 [label="second_1 <= 0.5\ngini = 0.311\nsamples = 26\nvalue = [21, 0, 5, 0, 0, 0, 0, 0, 0, 0, 0, 0, 0, 0\n0]"] ;
220 -> 221 ;
222 [label="minute_49 <= 0.5\ngini = 0.269\nsamples = 25\nvalue = [21, 0, 4, 0, 0, 0, 0, 0, 0, 0, 0, 0, 0, 0\n0]"] ;
221 -> 222 ;
223 [label="weather.home_partlycloudy <= 0.5\ngini = 0.219\nsamples = 24\nvalue = [21, 0, 3, 0, 0, 0, 0, 0, 0, 0, 0, 0, 0, 0\n0]"] ;
222 -> 223 ;
224 [label="minute_44 <= 0.5\ngini = 0.165\nsamples = 22\nvalue = [20, 0, 2, 0, 0, 0, 0, 0, 0, 0, 0, 0, 0, 0\n0]"] ;
223 -> 224 ;
225 [label="minute_51 <= 0.5\ngini = 0.095\nsamples = 20\nvalue = [19, 0, 1, 0, 0, 0, 0, 0, 0, 0, 0, 0, 0, 0\n0]"] ;
224 -> 225 ;
226 [label="gini = 0.0\nsamples = 18\nvalue = [18, 0, 0, 0, 0, 0, 0, 0, 0, 0, 0, 0, 0, 0\n0]"] ;
225 -> 226 ;
227 [label="gini = 0.5\nsamples = 2\nvalue = [1, 0, 1, 0, 0, 0, 0, 0, 0, 0, 0, 0, 0, 0\n0]"] ;
225 -> 227 ;
228 [label="gini = 0.5\nsamples = 2\nvalue = [1, 0, 1, 0, 0, 0, 0, 0, 0, 0, 0, 0, 0, 0\n0]"] ;
224 -> 228 ;
229 [label="gini = 0.5\nsamples = 2\nvalue = [1, 0, 1, 0, 0, 0, 0, 0, 0, 0, 0, 0, 0, 0\n0]"] ;
223 -> 229 ;
230 [label="gini = 0.0\nsamples = 1\nvalue = [0, 0, 1, 0, 0, 0, 0, 0, 0, 0, 0, 0, 0, 0\n0]"] ;
222 -> 230 ;
231 [label="gini = 0.0\nsamples = 1\nvalue = [0, 0, 1, 0, 0, 0, 0, 0, 0, 0, 0, 0, 0, 0\n0]"] ;
221 -> 231 ;
232 [label="gini = 0.444\nsamples = 3\nvalue = [1, 0, 2, 0, 0, 0, 0, 0, 0, 0, 0, 0, 0, 0\n0]"] ;
220 -> 232 ;
233 [label="gini = 0.0\nsamples = 1\nvalue = [0, 0, 1, 0, 0, 0, 0, 0, 0, 0, 0, 0, 0, 0\n0]"] ;
219 -> 233 ;
234 [label="sensor.0x00158d00066941c9_illuminance_lux <= 3.5\ngini = 0.563\nsamples = 50\nvalue = [26, 4, 20, 0, 0, 0, 0, 0, 0, 0, 0, 0, 0, 0\n0]"] ;
218 -> 234 ;
235 [label="gini = 0.408\nsamples = 7\nvalue = [2, 0, 5, 0, 0, 0, 0, 0, 0, 0, 0, 0, 0, 0\n0]"] ;
234 -> 235 ;
236 [label="weekday_4 <= 0.5\ngini = 0.558\nsamples = 43\nvalue = [24, 4, 15, 0, 0, 0, 0, 0, 0, 0, 0, 0, 0, 0\n0]"] ;
234 -> 236 ;
237 [label="minute_16 <= 0.5\ngini = 0.536\nsamples = 38\nvalue = [21, 2, 15, 0, 0, 0, 0, 0, 0, 0, 0, 0, 0, 0\n0]"] ;
236 -> 237 ;
238 [label="minute_59 <= 0.5\ngini = 0.508\nsamples = 36\nvalue = [21, 1, 14, 0, 0, 0, 0, 0, 0, 0, 0, 0, 0, 0\n0]"] ;
237 -> 238 ;
239 [label="minute_27 <= 0.5\ngini = 0.484\nsamples = 34\nvalue = [20, 0, 14, 0, 0, 0, 0, 0, 0, 0, 0, 0, 0, 0\n0]"] ;
238 -> 239 ;
240 [label="second_12 <= 0.5\ngini = 0.492\nsamples = 32\nvalue = [18, 0, 14, 0, 0, 0, 0, 0, 0, 0, 0, 0, 0, 0\n0]"] ;
239 -> 240 ;
241 [label="hour_17 <= 0.5\ngini = 0.498\nsamples = 30\nvalue = [16, 0, 14, 0, 0, 0, 0, 0, 0, 0, 0, 0, 0, 0\n0]"] ;
240 -> 241 ;
242 [label="weekday_1 <= 0.5\ngini = 0.48\nsamples = 25\nvalue = [15, 0, 10, 0, 0, 0, 0, 0, 0, 0, 0, 0, 0, 0\n0]"] ;
241 -> 242 ;
243 [label="gini = 0.5\nsamples = 18\nvalue = [9, 0, 9, 0, 0, 0, 0, 0, 0, 0, 0, 0, 0, 0\n0]"] ;
242 -> 243 ;
244 [label="gini = 0.245\nsamples = 7\nvalue = [6, 0, 1, 0, 0, 0, 0, 0, 0, 0, 0, 0, 0, 0\n0]"] ;
242 -> 244 ;
245 [label="gini = 0.32\nsamples = 5\nvalue = [1, 0, 4, 0, 0, 0, 0, 0, 0, 0, 0, 0, 0, 0\n0]"] ;
241 -> 245 ;
246 [label="gini = 0.0\nsamples = 2\nvalue = [2, 0, 0, 0, 0, 0, 0, 0, 0, 0, 0, 0, 0, 0\n0]"] ;
240 -> 246 ;
247 [label="gini = 0.0\nsamples = 2\nvalue = [2, 0, 0, 0, 0, 0, 0, 0, 0, 0, 0, 0, 0, 0\n0]"] ;
239 -> 247 ;
248 [label="gini = 0.5\nsamples = 2\nvalue = [1, 1, 0, 0, 0, 0, 0, 0, 0, 0, 0, 0, 0, 0\n0]"] ;
238 -> 248 ;
249 [label="gini = 0.5\nsamples = 2\nvalue = [0, 1, 1, 0, 0, 0, 0, 0, 0, 0, 0, 0, 0, 0\n0]"] ;
237 -> 249 ;
250 [label="gini = 0.48\nsamples = 5\nvalue = [3, 2, 0, 0, 0, 0, 0, 0, 0, 0, 0, 0, 0, 0\n0]"] ;
236 -> 250 ;
251 [label="gini = 0.0\nsamples = 4\nvalue = [4, 0, 0, 0, 0, 0, 0, 0, 0, 0, 0, 0, 0, 0\n0]"] ;
217 -> 251 ;
252 [label="gini = 0.0\nsamples = 2\nvalue = [0, 0, 2, 0, 0, 0, 0, 0, 0, 0, 0, 0, 0, 0\n0]"] ;
216 -> 252 ;
253 [label="gini = 0.0\nsamples = 2\nvalue = [0, 0, 2, 0, 0, 0, 0, 0, 0, 0, 0, 0, 0, 0\n0]"] ;
215 -> 253 ;
254 [label="second_51 <= 0.5\ngini = 0.5\nsamples = 161\nvalue = [81, 0, 80, 0, 0, 0, 0, 0, 0, 0, 0, 0, 0, 0\n0]"] ;
214 -> 254 ;
255 [label="hour_7 <= 0.5\ngini = 0.499\nsamples = 157\nvalue = [81, 0, 76, 0, 0, 0, 0, 0, 0, 0, 0, 0, 0, 0\n0]"] ;
254 -> 255 ;
256 [label="weekday_6 <= 0.5\ngini = 0.5\nsamples = 143\nvalue = [71, 0, 72, 0, 0, 0, 0, 0, 0, 0, 0, 0, 0, 0\n0]"] ;
255 -> 256 ;
257 [label="sensor.0x00158d0001e4ad46_illuminance_lux <= 3.5\ngini = 0.499\nsamples = 135\nvalue = [65, 0, 70, 0, 0, 0, 0, 0, 0, 0, 0, 0, 0, 0\n0]"] ;
256 -> 257 ;
258 [label="weekday_4 <= 0.5\ngini = 0.493\nsamples = 100\nvalue = [44, 0, 56, 0, 0, 0, 0, 0, 0, 0, 0, 0, 0, 0\n0]"] ;
257 -> 258 ;
259 [label="weekday_5 <= 0.5\ngini = 0.485\nsamples = 92\nvalue = [38, 0, 54, 0, 0, 0, 0, 0, 0, 0, 0, 0, 0, 0\n0]"] ;
258 -> 259 ;
260 [label="second_44 <= 0.5\ngini = 0.496\nsamples = 68\nvalue = [31, 0, 37, 0, 0, 0, 0, 0, 0, 0, 0, 0, 0, 0\n0]"] ;
259 -> 260 ;
261 [label="minute_18 <= 0.5\ngini = 0.498\nsamples = 66\nvalue = [31, 0, 35, 0, 0, 0, 0, 0, 0, 0, 0, 0, 0, 0\n0]"] ;
260 -> 261 ;
262 [label="second_57 <= 0.5\ngini = 0.5\nsamples = 64\nvalue = [31, 0, 33, 0, 0, 0, 0, 0, 0, 0, 0, 0, 0, 0\n0]"] ;
261 -> 262 ;
263 [label="hour_0 <= 0.5\ngini = 0.5\nsamples = 59\nvalue = [30, 0, 29, 0, 0, 0, 0, 0, 0, 0, 0, 0, 0, 0\n0]"] ;
262 -> 263 ;
264 [label="weather.home_sunny <= 0.5\ngini = 0.5\nsamples = 57\nvalue = [28, 0, 29, 0, 0, 0, 0, 0, 0, 0, 0, 0, 0, 0\n0]"] ;
263 -> 264 ;
265 [label="hour_19 <= 0.5\ngini = 0.499\nsamples = 50\nvalue = [26, 0, 24, 0, 0, 0, 0, 0, 0, 0, 0, 0, 0, 0\n0]"] ;
264 -> 265 ;
266 [label="second_21 <= 0.5\ngini = 0.496\nsamples = 46\nvalue = [25, 0, 21, 0, 0, 0, 0, 0, 0, 0, 0, 0, 0, 0\n0]"] ;
265 -> 266 ;
267 [label="device_tracker.chris_phone_not_home <= 0.5\ngini = 0.494\nsamples = 45\nvalue = [25, 0, 20, 0, 0, 0, 0, 0, 0, 0, 0, 0, 0, 0\n0]"] ;
266 -> 267 ;
268 [label="gini = 0.494\nsamples = 18\nvalue = [8, 0, 10, 0, 0, 0, 0, 0, 0, 0, 0, 0, 0, 0\n0]"] ;
267 -> 268 ;
269 [label="hour_4 <= 0.5\ngini = 0.466\nsamples = 27\nvalue = [17, 0, 10, 0, 0, 0, 0, 0, 0, 0, 0, 0, 0, 0\n0]"] ;
267 -> 269 ;
270 [label="minute_52 <= 0.5\ngini = 0.435\nsamples = 25\nvalue = [17, 0, 8, 0, 0, 0, 0, 0, 0, 0, 0, 0, 0, 0\n0]"] ;
269 -> 270 ;
271 [label="second_32 <= 0.5\ngini = 0.413\nsamples = 24\nvalue = [17, 0, 7, 0, 0, 0, 0, 0, 0, 0, 0, 0, 0, 0\n0]"] ;
270 -> 271 ;
272 [label="second_19 <= 0.5\ngini = 0.386\nsamples = 23\nvalue = [17, 0, 6, 0, 0, 0, 0, 0, 0, 0, 0, 0, 0, 0\n0]"] ;
271 -> 272 ;
273 [label="minute_10 <= 0.5\ngini = 0.351\nsamples = 22\nvalue = [17, 0, 5, 0, 0, 0, 0, 0, 0, 0, 0, 0, 0, 0\n0]"] ;
272 -> 273 ;
274 [label="second_50 <= 0.5\ngini = 0.308\nsamples = 21\nvalue = [17, 0, 4, 0, 0, 0, 0, 0, 0, 0, 0, 0, 0, 0\n0]"] ;
273 -> 274 ;
275 [label="weekday_1 <= 0.5\ngini = 0.255\nsamples = 20\nvalue = [17, 0, 3, 0, 0, 0, 0, 0, 0, 0, 0, 0, 0, 0\n0]"] ;
274 -> 275 ;
276 [label="gini = 0.133\nsamples = 14\nvalue = [13, 0, 1, 0, 0, 0, 0, 0, 0, 0, 0, 0, 0, 0\n0]"] ;
275 -> 276 ;
277 [label="gini = 0.444\nsamples = 6\nvalue = [4, 0, 2, 0, 0, 0, 0, 0, 0, 0, 0, 0, 0, 0\n0]"] ;
275 -> 277 ;
278 [label="gini = 0.0\nsamples = 1\nvalue = [0, 0, 1, 0, 0, 0, 0, 0, 0, 0, 0, 0, 0, 0\n0]"] ;
274 -> 278 ;
279 [label="gini = 0.0\nsamples = 1\nvalue = [0, 0, 1, 0, 0, 0, 0, 0, 0, 0, 0, 0, 0, 0\n0]"] ;
273 -> 279 ;
280 [label="gini = 0.0\nsamples = 1\nvalue = [0, 0, 1, 0, 0, 0, 0, 0, 0, 0, 0, 0, 0, 0\n0]"] ;
272 -> 280 ;
281 [label="gini = 0.0\nsamples = 1\nvalue = [0, 0, 1, 0, 0, 0, 0, 0, 0, 0, 0, 0, 0, 0\n0]"] ;
271 -> 281 ;
282 [label="gini = 0.0\nsamples = 1\nvalue = [0, 0, 1, 0, 0, 0, 0, 0, 0, 0, 0, 0, 0, 0\n0]"] ;
270 -> 282 ;
283 [label="gini = 0.0\nsamples = 2\nvalue = [0, 0, 2, 0, 0, 0, 0, 0, 0, 0, 0, 0, 0, 0\n0]"] ;
269 -> 283 ;
284 [label="gini = 0.0\nsamples = 1\nvalue = [0, 0, 1, 0, 0, 0, 0, 0, 0, 0, 0, 0, 0, 0\n0]"] ;
266 -> 284 ;
285 [label="gini = 0.375\nsamples = 4\nvalue = [1, 0, 3, 0, 0, 0, 0, 0, 0, 0, 0, 0, 0, 0\n0]"] ;
265 -> 285 ;
286 [label="gini = 0.408\nsamples = 7\nvalue = [2, 0, 5, 0, 0, 0, 0, 0, 0, 0, 0, 0, 0, 0\n0]"] ;
264 -> 286 ;
287 [label="gini = 0.0\nsamples = 2\nvalue = [2, 0, 0, 0, 0, 0, 0, 0, 0, 0, 0, 0, 0, 0\n0]"] ;
263 -> 287 ;
288 [label="gini = 0.32\nsamples = 5\nvalue = [1, 0, 4, 0, 0, 0, 0, 0, 0, 0, 0, 0, 0, 0\n0]"] ;
262 -> 288 ;
289 [label="gini = 0.0\nsamples = 2\nvalue = [0, 0, 2, 0, 0, 0, 0, 0, 0, 0, 0, 0, 0, 0\n0]"] ;
261 -> 289 ;
290 [label="gini = 0.0\nsamples = 2\nvalue = [0, 0, 2, 0, 0, 0, 0, 0, 0, 0, 0, 0, 0, 0\n0]"] ;
260 -> 290 ;
291 [label="minute_10 <= 0.5\ngini = 0.413\nsamples = 24\nvalue = [7, 0, 17, 0, 0, 0, 0, 0, 0, 0, 0, 0, 0, 0\n0]"] ;
259 -> 291 ;
292 [label="minute_50 <= 0.5\ngini = 0.386\nsamples = 23\nvalue = [6, 0, 17, 0, 0, 0, 0, 0, 0, 0, 0, 0, 0, 0\n0]"] ;
291 -> 292 ;
293 [label="second_19 <= 0.5\ngini = 0.351\nsamples = 22\nvalue = [5, 0, 17, 0, 0, 0, 0, 0, 0, 0, 0, 0, 0, 0\n0]"] ;
292 -> 293 ;
294 [label="minute_49 <= 0.5\ngini = 0.308\nsamples = 21\nvalue = [4, 0, 17, 0, 0, 0, 0, 0, 0, 0, 0, 0, 0, 0\n0]"] ;
293 -> 294 ;
295 [label="hour_3 <= 0.5\ngini = 0.255\nsamples = 20\nvalue = [3, 0, 17, 0, 0, 0, 0, 0, 0, 0, 0, 0, 0, 0\n0]"] ;
294 -> 295 ;
296 [label="gini = 0.124\nsamples = 15\nvalue = [1, 0, 14, 0, 0, 0, 0, 0, 0, 0, 0, 0, 0, 0\n0]"] ;
295 -> 296 ;
297 [label="gini = 0.48\nsamples = 5\nvalue = [2, 0, 3, 0, 0, 0, 0, 0, 0, 0, 0, 0, 0, 0\n0]"] ;
295 -> 297 ;
298 [label="gini = 0.0\nsamples = 1\nvalue = [1, 0, 0, 0, 0, 0, 0, 0, 0, 0, 0, 0, 0, 0\n0]"] ;
294 -> 298 ;
299 [label="gini = 0.0\nsamples = 1\nvalue = [1, 0, 0, 0, 0, 0, 0, 0, 0, 0, 0, 0, 0, 0\n0]"] ;
293 -> 299 ;
300 [label="gini = 0.0\nsamples = 1\nvalue = [1, 0, 0, 0, 0, 0, 0, 0, 0, 0, 0, 0, 0, 0\n0]"] ;
292 -> 300 ;
301 [label="gini = 0.0\nsamples = 1\nvalue = [1, 0, 0, 0, 0, 0, 0, 0, 0, 0, 0, 0, 0, 0\n0]"] ;
291 -> 301 ;
302 [label="gini = 0.375\nsamples = 8\nvalue = [6, 0, 2, 0, 0, 0, 0, 0, 0, 0, 0, 0, 0, 0\n0]"] ;
258 -> 302 ;
303 [label="weather.home_rainy <= 0.5\ngini = 0.48\nsamples = 35\nvalue = [21, 0, 14, 0, 0, 0, 0, 0, 0, 0, 0, 0, 0, 0\n0]"] ;
257 -> 303 ;
304 [label="second_42 <= 0.5\ngini = 0.436\nsamples = 28\nvalue = [19, 0, 9, 0, 0, 0, 0, 0, 0, 0, 0, 0, 0, 0\n0]"] ;
303 -> 304 ;
305 [label="second_48 <= 0.5\ngini = 0.417\nsamples = 27\nvalue = [19, 0, 8, 0, 0, 0, 0, 0, 0, 0, 0, 0, 0, 0\n0]"] ;
304 -> 305 ;
306 [label="second_31 <= 0.5\ngini = 0.393\nsamples = 26\nvalue = [19, 0, 7, 0, 0, 0, 0, 0, 0, 0, 0, 0, 0, 0\n0]"] ;
305 -> 306 ;
307 [label="minute_14 <= 0.5\ngini = 0.365\nsamples = 25\nvalue = [19, 0, 6, 0, 0, 0, 0, 0, 0, 0, 0, 0, 0, 0\n0]"] ;
306 -> 307 ;
308 [label="hour_2 <= 0.5\ngini = 0.33\nsamples = 24\nvalue = [19, 0, 5, 0, 0, 0, 0, 0, 0, 0, 0, 0, 0, 0\n0]"] ;
307 -> 308 ;
309 [label="second_59 <= 0.5\ngini = 0.287\nsamples = 23\nvalue = [19, 0, 4, 0, 0, 0, 0, 0, 0, 0, 0, 0, 0, 0\n0]"] ;
308 -> 309 ;
310 [label="minute_2 <= 0.5\ngini = 0.236\nsamples = 22\nvalue = [19, 0, 3, 0, 0, 0, 0, 0, 0, 0, 0, 0, 0, 0\n0]"] ;
309 -> 310 ;
311 [label="minute_18 <= 0.5\ngini = 0.18\nsamples = 20\nvalue = [18, 0, 2, 0, 0, 0, 0, 0, 0, 0, 0, 0, 0, 0\n0]"] ;
310 -> 311 ;
312 [label="gini = 0.105\nsamples = 18\nvalue = [17, 0, 1, 0, 0, 0, 0, 0, 0, 0, 0, 0, 0, 0\n0]"] ;
311 -> 312 ;
313 [label="gini = 0.5\nsamples = 2\nvalue = [1, 0, 1, 0, 0, 0, 0, 0, 0, 0, 0, 0, 0, 0\n0]"] ;
311 -> 313 ;
314 [label="gini = 0.5\nsamples = 2\nvalue = [1, 0, 1, 0, 0, 0, 0, 0, 0, 0, 0, 0, 0, 0\n0]"] ;
310 -> 314 ;
315 [label="gini = 0.0\nsamples = 1\nvalue = [0, 0, 1, 0, 0, 0, 0, 0, 0, 0, 0, 0, 0, 0\n0]"] ;
309 -> 315 ;
316 [label="gini = 0.0\nsamples = 1\nvalue = [0, 0, 1, 0, 0, 0, 0, 0, 0, 0, 0, 0, 0, 0\n0]"] ;
308 -> 316 ;
317 [label="gini = 0.0\nsamples = 1\nvalue = [0, 0, 1, 0, 0, 0, 0, 0, 0, 0, 0, 0, 0, 0\n0]"] ;
307 -> 317 ;
318 [label="gini = 0.0\nsamples = 1\nvalue = [0, 0, 1, 0, 0, 0, 0, 0, 0, 0, 0, 0, 0, 0\n0]"] ;
306 -> 318 ;
319 [label="gini = 0.0\nsamples = 1\nvalue = [0, 0, 1, 0, 0, 0, 0, 0, 0, 0, 0, 0, 0, 0\n0]"] ;
305 -> 319 ;
320 [label="gini = 0.0\nsamples = 1\nvalue = [0, 0, 1, 0, 0, 0, 0, 0, 0, 0, 0, 0, 0, 0\n0]"] ;
304 -> 320 ;
321 [label="gini = 0.408\nsamples = 7\nvalue = [2, 0, 5, 0, 0, 0, 0, 0, 0, 0, 0, 0, 0, 0\n0]"] ;
303 -> 321 ;
322 [label="gini = 0.375\nsamples = 8\nvalue = [6, 0, 2, 0, 0, 0, 0, 0, 0, 0, 0, 0, 0, 0\n0]"] ;
256 -> 322 ;
323 [label="gini = 0.408\nsamples = 14\nvalue = [10, 0, 4, 0, 0, 0, 0, 0, 0, 0, 0, 0, 0, 0\n0]"] ;
255 -> 323 ;
324 [label="gini = 0.0\nsamples = 4\nvalue = [0, 0, 4, 0, 0, 0, 0, 0, 0, 0, 0, 0, 0, 0\n0]"] ;
254 -> 324 ;
325 [label="gini = 0.72\nsamples = 5\nvalue = [2, 0, 0, 1, 1, 1, 0, 0, 0, 0, 0, 0, 0, 0\n0]"] ;
213 -> 325 ;
326 [label="gini = 0.426\nsamples = 18\nvalue = [13, 1, 4, 0, 0, 0, 0, 0, 0, 0, 0, 0, 0, 0\n0]"] ;
212 -> 326 ;
327 [label="gini = 0.0\nsamples = 4\nvalue = [4, 0, 0, 0, 0, 0, 0, 0, 0, 0, 0, 0, 0, 0\n0]"] ;
211 -> 327 ;
328 [label="gini = 0.0\nsamples = 4\nvalue = [4, 0, 0, 0, 0, 0, 0, 0, 0, 0, 0, 0, 0, 0\n0]"] ;
210 -> 328 ;
329 [label="gini = 0.375\nsamples = 8\nvalue = [2, 0, 6, 0, 0, 0, 0, 0, 0, 0, 0, 0, 0, 0\n0]"] ;
209 -> 329 ;
330 [label="gini = 0.346\nsamples = 9\nvalue = [2, 0, 7, 0, 0, 0, 0, 0, 0, 0, 0, 0, 0, 0\n0]"] ;
208 -> 330 ;
331 [label="gini = 0.0\nsamples = 4\nvalue = [4, 0, 0, 0, 0, 0, 0, 0, 0, 0, 0, 0, 0, 0\n0]"] ;
207 -> 331 ;
332 [label="gini = 0.278\nsamples = 6\nvalue = [1, 0, 5, 0, 0, 0, 0, 0, 0, 0, 0, 0, 0, 0\n0]"] ;
206 -> 332 ;
333 [label="gini = 0.0\nsamples = 3\nvalue = [0, 0, 3, 0, 0, 0, 0, 0, 0, 0, 0, 0, 0, 0\n0]"] ;
205 -> 333 ;
334 [label="gini = 0.695\nsamples = 16\nvalue = [7, 4, 3, 2, 0, 0, 0, 0, 0, 0, 0, 0, 0, 0\n0]"] ;
204 -> 334 ;
335 [label="gini = 0.0\nsamples = 4\nvalue = [0, 0, 4, 0, 0, 0, 0, 0, 0, 0, 0, 0, 0, 0\n0]"] ;
203 -> 335 ;
336 [label="hour_16 <= 0.5\ngini = 0.867\nsamples = 26\nvalue = [4, 1, 3, 0, 0, 0, 0, 2, 4, 1, 5, 3, 3, 0\n0]"] ;
200 -> 336 ;
337 [label="gini = 0.612\nsamples = 7\nvalue = [3, 1, 3, 0, 0, 0, 0, 0, 0, 0, 0, 0, 0, 0\n0]"] ;
336 -> 337 ;
338 [label="gini = 0.82\nsamples = 19\nvalue = [1, 0, 0, 0, 0, 0, 0, 2, 4, 1, 5, 3, 3, 0\n0]"] ;
336 -> 338 ;
339 [label="device_tracker.chris_phone_not_home <= 0.5\ngini = 0.838\nsamples = 932\nvalue = [241, 17, 248, 27, 43, 43, 1, 62, 42, 35, 68, 57\n46, 1, 1]"] ;
199 -> 339 ;
340 [label="hour_11 <= 0.5\ngini = 0.87\nsamples = 423\nvalue = [83, 8, 93, 12, 12, 12, 0, 44, 25, 23, 43, 29\n39, 0, 0]"] ;
339 -> 340 ;
341 [label="minute_37 <= 0.5\ngini = 0.851\nsamples = 346\nvalue = [79, 8, 88, 12, 10, 10, 0, 29, 19, 15, 30, 20\n26, 0, 0]"] ;
340 -> 341 ;
342 [label="weather.home_partlycloudy <= 0.5\ngini = 0.829\nsamples = 307\nvalue = [79, 8, 87, 12, 10, 10, 0, 21, 14, 8, 25, 12\n21, 0, 0]"] ;
341 -> 342 ;
343 [label="second_11 <= 0.5\ngini = 0.762\nsamples = 210\nvalue = [66, 7, 75, 8, 9, 9, 0, 9, 3, 4, 8, 7, 5, 0\n0]"] ;
342 -> 343 ;
344 [label="second_30 <= 0.5\ngini = 0.732\nsamples = 194\nvalue = [64, 7, 75, 8, 9, 9, 0, 5, 3, 3, 4, 3, 4, 0\n0]"] ;
343 -> 344 ;
345 [label="second_4 <= 0.5\ngini = 0.704\nsamples = 183\nvalue = [63, 7, 75, 8, 9, 9, 0, 2, 2, 3, 1, 3, 1, 0\n0]"] ;
344 -> 345 ;
346 [label="hour_21 <= 0.5\ngini = 0.672\nsamples = 167\nvalue = [61, 7, 72, 7, 8, 8, 0, 1, 0, 1, 1, 1, 0, 0\n0]"] ;
345 -> 346 ;
347 [label="weekday_2 <= 0.5\ngini = 0.655\nsamples = 156\nvalue = [59, 7, 69, 7, 5, 5, 0, 1, 0, 1, 1, 1, 0, 0\n0]"] ;
346 -> 347 ;
348 [label="minute_56 <= 0.5\ngini = 0.678\nsamples = 135\nvalue = [53, 7, 54, 7, 5, 5, 0, 1, 0, 1, 1, 1, 0, 0\n0]"] ;
347 -> 348 ;
349 [label="minute_58 <= 0.5\ngini = 0.659\nsamples = 130\nvalue = [52, 7, 54, 7, 5, 5, 0, 0, 0, 0, 0, 0, 0, 0\n0]"] ;
348 -> 349 ;
350 [label="second_17 <= 0.5\ngini = 0.644\nsamples = 127\nvalue = [52, 6, 54, 7, 4, 4, 0, 0, 0, 0, 0, 0, 0, 0\n0]"] ;
349 -> 350 ;
351 [label="hour_0 <= 0.5\ngini = 0.636\nsamples = 123\nvalue = [50, 4, 54, 7, 4, 4, 0, 0, 0, 0, 0, 0, 0, 0\n0]"] ;
350 -> 351 ;
352 [label="sensor.0x00158d00066941c9_illuminance_lux <= 56.0\ngini = 0.61\nsamples = 113\nvalue = [47, 1, 52, 7, 3, 3, 0, 0, 0, 0, 0, 0, 0, 0\n0]"] ;
351 -> 352 ;
353 [label="second_35 <= 0.5\ngini = 0.597\nsamples = 111\nvalue = [47, 1, 52, 7, 2, 2, 0, 0, 0, 0, 0, 0, 0, 0\n0]"] ;
352 -> 353 ;
354 [label="sensor.0x00158d00066941c9_illuminance_lux <= 39.5\ngini = 0.583\nsamples = 108\nvalue = [47, 1, 51, 7, 1, 1, 0, 0, 0, 0, 0, 0, 0, 0\n0]"] ;
353 -> 354 ;
355 [label="sensor.0x00158d00066941c9_illuminance_lux <= 30.5\ngini = 0.584\nsamples = 104\nvalue = [43, 1, 51, 7, 1, 1, 0, 0, 0, 0, 0, 0, 0, 0\n0]"] ;
354 -> 355 ;
356 [label="minute_5 <= 0.5\ngini = 0.562\nsamples = 99\nvalue = [42, 0, 50, 5, 1, 1, 0, 0, 0, 0, 0, 0, 0, 0\n0]"] ;
355 -> 356 ;
357 [label="hour_9 <= 0.5\ngini = 0.546\nsamples = 95\nvalue = [42, 0, 48, 5, 0, 0, 0, 0, 0, 0, 0, 0, 0, 0\n0]"] ;
356 -> 357 ;
358 [label="minute_9 <= 0.5\ngini = 0.546\nsamples = 90\nvalue = [38, 0, 47, 5, 0, 0, 0, 0, 0, 0, 0, 0, 0, 0\n0]"] ;
357 -> 358 ;
359 [label="second_57 <= 0.5\ngini = 0.532\nsamples = 83\nvalue = [37, 0, 43, 3, 0, 0, 0, 0, 0, 0, 0, 0, 0, 0\n0]"] ;
358 -> 359 ;
360 [label="minute_50 <= 0.5\ngini = 0.534\nsamples = 81\nvalue = [37, 0, 41, 3, 0, 0, 0, 0, 0, 0, 0, 0, 0, 0\n0]"] ;
359 -> 360 ;
361 [label="minute_23 <= 0.5\ngini = 0.535\nsamples = 79\nvalue = [37, 0, 39, 3, 0, 0, 0, 0, 0, 0, 0, 0, 0, 0\n0]"] ;
360 -> 361 ;
362 [label="second_20 <= 0.5\ngini = 0.537\nsamples = 77\nvalue = [37, 0, 37, 3, 0, 0, 0, 0, 0, 0, 0, 0, 0, 0\n0]"] ;
361 -> 362 ;
363 [label="minute_32 <= 0.5\ngini = 0.537\nsamples = 75\nvalue = [37, 0, 35, 3, 0, 0, 0, 0, 0, 0, 0, 0, 0, 0\n0]"] ;
362 -> 363 ;
364 [label="sensor.0x00158d00066941c9_illuminance_lux <= 21.0\ngini = 0.537\nsamples = 73\nvalue = [37, 0, 33, 3, 0, 0, 0, 0, 0, 0, 0, 0, 0, 0\n0]"] ;
363 -> 364 ;
365 [label="second_1 <= 0.5\ngini = 0.539\nsamples = 62\nvalue = [33, 0, 26, 3, 0, 0, 0, 0, 0, 0, 0, 0, 0, 0\n0]"] ;
364 -> 365 ;
366 [label="second_55 <= 0.5\ngini = 0.535\nsamples = 60\nvalue = [33, 0, 24, 3, 0, 0, 0, 0, 0, 0, 0, 0, 0, 0\n0]"] ;
365 -> 366 ;
367 [label="sensor.0x00158d0001e4ad46_illuminance_lux <= 16.5\ngini = 0.54\nsamples = 58\nvalue = [31, 0, 24, 3, 0, 0, 0, 0, 0, 0, 0, 0, 0, 0\n0]"] ;
366 -> 367 ;
368 [label="sensor.0x00158d00066941c9_illuminance_lux <= 19.5\ngini = 0.557\nsamples = 47\nvalue = [23, 0, 21, 3, 0, 0, 0, 0, 0, 0, 0, 0, 0, 0\n0]"] ;
367 -> 368 ;
369 [label="second_29 <= 0.5\ngini = 0.564\nsamples = 31\nvalue = [17, 0, 11, 3, 0, 0, 0, 0, 0, 0, 0, 0, 0, 0\n0]"] ;
368 -> 369 ;
370 [label="second_25 <= 0.5\ngini = 0.558\nsamples = 30\nvalue = [17, 0, 10, 3, 0, 0, 0, 0, 0, 0, 0, 0, 0, 0\n0]"] ;
369 -> 370 ;
371 [label="second_22 <= 0.5\ngini = 0.549\nsamples = 29\nvalue = [17, 0, 9, 3, 0, 0, 0, 0, 0, 0, 0, 0, 0, 0\n0]"] ;
370 -> 371 ;
372 [label="minute_19 <= 0.5\ngini = 0.538\nsamples = 28\nvalue = [17, 0, 8, 3, 0, 0, 0, 0, 0, 0, 0, 0, 0, 0\n0]"] ;
371 -> 372 ;
373 [label="second_8 <= 0.5\ngini = 0.524\nsamples = 27\nvalue = [17, 0, 7, 3, 0, 0, 0, 0, 0, 0, 0, 0, 0, 0\n0]"] ;
372 -> 373 ;
374 [label="hour_18 <= 0.5\ngini = 0.497\nsamples = 24\nvalue = [16, 0, 5, 3, 0, 0, 0, 0, 0, 0, 0, 0, 0, 0\n0]"] ;
373 -> 374 ;
375 [label="gini = 0.421\nsamples = 19\nvalue = [14, 0, 3, 2, 0, 0, 0, 0, 0, 0, 0, 0, 0, 0\n0]"] ;
374 -> 375 ;
376 [label="gini = 0.64\nsamples = 5\nvalue = [2, 0, 2, 1, 0, 0, 0, 0, 0, 0, 0, 0, 0, 0\n0]"] ;
374 -> 376 ;
377 [label="gini = 0.444\nsamples = 3\nvalue = [1, 0, 2, 0, 0, 0, 0, 0, 0, 0, 0, 0, 0, 0\n0]"] ;
373 -> 377 ;
378 [label="gini = 0.0\nsamples = 1\nvalue = [0, 0, 1, 0, 0, 0, 0, 0, 0, 0, 0, 0, 0, 0\n0]"] ;
372 -> 378 ;
379 [label="gini = 0.0\nsamples = 1\nvalue = [0, 0, 1, 0, 0, 0, 0, 0, 0, 0, 0, 0, 0, 0\n0]"] ;
371 -> 379 ;
380 [label="gini = 0.0\nsamples = 1\nvalue = [0, 0, 1, 0, 0, 0, 0, 0, 0, 0, 0, 0, 0, 0\n0]"] ;
370 -> 380 ;
381 [label="gini = 0.0\nsamples = 1\nvalue = [0, 0, 1, 0, 0, 0, 0, 0, 0, 0, 0, 0, 0, 0\n0]"] ;
369 -> 381 ;
382 [label="gini = 0.469\nsamples = 16\nvalue = [6, 0, 10, 0, 0, 0, 0, 0, 0, 0, 0, 0, 0, 0\n0]"] ;
368 -> 382 ;
383 [label="gini = 0.397\nsamples = 11\nvalue = [8, 0, 3, 0, 0, 0, 0, 0, 0, 0, 0, 0, 0, 0\n0]"] ;
367 -> 383 ;
384 [label="gini = 0.0\nsamples = 2\nvalue = [2, 0, 0, 0, 0, 0, 0, 0, 0, 0, 0, 0, 0, 0\n0]"] ;
366 -> 384 ;
385 [label="gini = 0.0\nsamples = 2\nvalue = [0, 0, 2, 0, 0, 0, 0, 0, 0, 0, 0, 0, 0, 0\n0]"] ;
365 -> 385 ;
386 [label="gini = 0.463\nsamples = 11\nvalue = [4, 0, 7, 0, 0, 0, 0, 0, 0, 0, 0, 0, 0, 0\n0]"] ;
364 -> 386 ;
387 [label="gini = 0.0\nsamples = 2\nvalue = [0, 0, 2, 0, 0, 0, 0, 0, 0, 0, 0, 0, 0, 0\n0]"] ;
363 -> 387 ;
388 [label="gini = 0.0\nsamples = 2\nvalue = [0, 0, 2, 0, 0, 0, 0, 0, 0, 0, 0, 0, 0, 0\n0]"] ;
362 -> 388 ;
389 [label="gini = 0.0\nsamples = 2\nvalue = [0, 0, 2, 0, 0, 0, 0, 0, 0, 0, 0, 0, 0, 0\n0]"] ;
361 -> 389 ;
390 [label="gini = 0.0\nsamples = 2\nvalue = [0, 0, 2, 0, 0, 0, 0, 0, 0, 0, 0, 0, 0, 0\n0]"] ;
360 -> 390 ;
391 [label="gini = 0.0\nsamples = 2\nvalue = [0, 0, 2, 0, 0, 0, 0, 0, 0, 0, 0, 0, 0, 0\n0]"] ;
359 -> 391 ;
392 [label="gini = 0.571\nsamples = 7\nvalue = [1, 0, 4, 2, 0, 0, 0, 0, 0, 0, 0, 0, 0, 0\n0]"] ;
358 -> 392 ;
393 [label="gini = 0.32\nsamples = 5\nvalue = [4, 0, 1, 0, 0, 0, 0, 0, 0, 0, 0, 0, 0, 0\n0]"] ;
357 -> 393 ;
394 [label="gini = 0.625\nsamples = 4\nvalue = [0, 0, 2, 0, 1, 1, 0, 0, 0, 0, 0, 0, 0, 0\n0]"] ;
356 -> 394 ;
395 [label="gini = 0.72\nsamples = 5\nvalue = [1, 1, 1, 2, 0, 0, 0, 0, 0, 0, 0, 0, 0, 0\n0]"] ;
355 -> 395 ;
396 [label="gini = 0.0\nsamples = 4\nvalue = [4, 0, 0, 0, 0, 0, 0, 0, 0, 0, 0, 0, 0, 0\n0]"] ;
354 -> 396 ;
397 [label="gini = 0.667\nsamples = 3\nvalue = [0, 0, 1, 0, 1, 1, 0, 0, 0, 0, 0, 0, 0, 0\n0]"] ;
353 -> 397 ;
398 [label="gini = 0.5\nsamples = 2\nvalue = [0, 0, 0, 0, 1, 1, 0, 0, 0, 0, 0, 0, 0, 0\n0]"] ;
352 -> 398 ;
399 [label="gini = 0.76\nsamples = 10\nvalue = [3, 3, 2, 0, 1, 1, 0, 0, 0, 0, 0, 0, 0, 0\n0]"] ;
351 -> 399 ;
400 [label="gini = 0.5\nsamples = 4\nvalue = [2, 2, 0, 0, 0, 0, 0, 0, 0, 0, 0, 0, 0, 0\n0]"] ;
350 -> 400 ;
401 [label="gini = 0.667\nsamples = 3\nvalue = [0, 1, 0, 0, 1, 1, 0, 0, 0, 0, 0, 0, 0, 0\n0]"] ;
349 -> 401 ;
402 [label="gini = 0.8\nsamples = 5\nvalue = [1, 0, 0, 0, 0, 0, 0, 1, 0, 1, 1, 1, 0, 0\n0]"] ;
348 -> 402 ;
403 [label="sensor.0x00158d00066941c9_illuminance_lux <= 17.5\ngini = 0.408\nsamples = 21\nvalue = [6, 0, 15, 0, 0, 0, 0, 0, 0, 0, 0, 0, 0, 0\n0]"] ;
347 -> 403 ;
404 [label="gini = 0.49\nsamples = 7\nvalue = [4, 0, 3, 0, 0, 0, 0, 0, 0, 0, 0, 0, 0, 0\n0]"] ;
403 -> 404 ;
405 [label="gini = 0.245\nsamples = 14\nvalue = [2, 0, 12, 0, 0, 0, 0, 0, 0, 0, 0, 0, 0, 0\n0]"] ;
403 -> 405 ;
406 [label="gini = 0.744\nsamples = 11\nvalue = [2, 0, 3, 0, 3, 3, 0, 0, 0, 0, 0, 0, 0, 0\n0]"] ;
346 -> 406 ;
407 [label="gini = 0.883\nsamples = 16\nvalue = [2, 0, 3, 1, 1, 1, 0, 1, 2, 2, 0, 2, 1, 0\n0]"] ;
345 -> 407 ;
408 [label="gini = 0.76\nsamples = 11\nvalue = [1, 0, 0, 0, 0, 0, 0, 3, 1, 0, 3, 0, 3, 0\n0]"] ;
344 -> 408 ;
409 [label="gini = 0.789\nsamples = 16\nvalue = [2, 0, 0, 0, 0, 0, 0, 4, 0, 1, 4, 4, 1, 0\n0]"] ;
343 -> 409 ;
410 [label="minute_11 <= 0.5\ngini = 0.874\nsamples = 97\nvalue = [13, 1, 12, 4, 1, 1, 0, 12, 11, 4, 17, 5, 16\n0, 0]"] ;
342 -> 410 ;
411 [label="sensor.0x00158d00066941c9_illuminance_lux <= 20.5\ngini = 0.876\nsamples = 77\nvalue = [13, 1, 11, 4, 1, 1, 0, 12, 5, 3, 11, 5, 10\n0, 0]"] ;
410 -> 411 ;
412 [label="gini = 0.642\nsamples = 18\nvalue = [8, 0, 7, 1, 1, 1, 0, 0, 0, 0, 0, 0, 0, 0\n0]"] ;
411 -> 412 ;
413 [label="minute_32 <= 0.5\ngini = 0.864\nsamples = 59\nvalue = [5, 1, 4, 3, 0, 0, 0, 12, 5, 3, 11, 5, 10, 0\n0]"] ;
411 -> 413 ;
414 [label="weekday_3 <= 0.5\ngini = 0.842\nsamples = 53\nvalue = [4, 1, 1, 1, 0, 0, 0, 12, 5, 3, 11, 5, 10, 0\n0]"] ;
413 -> 414 ;
415 [label="sensor.0x00158d00066941c9_illuminance_lux <= 26.5\ngini = 0.815\nsamples = 48\nvalue = [1, 1, 0, 0, 0, 0, 0, 12, 5, 3, 11, 5, 10, 0\n0]"] ;
414 -> 415 ;
416 [label="minute_1 <= 0.5\ngini = 0.8\nsamples = 46\nvalue = [0, 0, 0, 0, 0, 0, 0, 12, 5, 3, 11, 5, 10, 0\n0]"] ;
415 -> 416 ;
417 [label="sensor.0x00158d00066941c9_illuminance_lux <= 23.5\ngini = 0.775\nsamples = 32\nvalue = [0, 0, 0, 0, 0, 0, 0, 9, 3, 3, 7, 1, 9, 0\n0]"] ;
416 -> 417 ;
418 [label="gini = 0.753\nsamples = 18\nvalue = [0, 0, 0, 0, 0, 0, 0, 5, 2, 0, 5, 1, 5, 0\n0]"] ;
417 -> 418 ;
419 [label="gini = 0.765\nsamples = 14\nvalue = [0, 0, 0, 0, 0, 0, 0, 4, 1, 3, 2, 0, 4, 0\n0]"] ;
417 -> 419 ;
420 [label="gini = 0.765\nsamples = 14\nvalue = [0, 0, 0, 0, 0, 0, 0, 3, 2, 0, 4, 4, 1, 0\n0]"] ;
416 -> 420 ;
421 [label="gini = 0.5\nsamples = 2\nvalue = [1, 1, 0, 0, 0, 0, 0, 0, 0, 0, 0, 0, 0, 0\n0]"] ;
415 -> 421 ;
422 [label="gini = 0.56\nsamples = 5\nvalue = [3, 0, 1, 1, 0, 0, 0, 0, 0, 0, 0, 0, 0, 0\n0]"] ;
414 -> 422 ;
423 [label="gini = 0.611\nsamples = 6\nvalue = [1, 0, 3, 2, 0, 0, 0, 0, 0, 0, 0, 0, 0, 0\n0]"] ;
413 -> 423 ;
424 [label="weekday_3 <= 0.5\ngini = 0.725\nsamples = 20\nvalue = [0, 0, 1, 0, 0, 0, 0, 0, 6, 1, 6, 0, 6, 0\n0]"] ;
410 -> 424 ;
425 [label="gini = 0.0\nsamples = 1\nvalue = [0, 0, 1, 0, 0, 0, 0, 0, 0, 0, 0, 0, 0, 0\n0]"] ;
424 -> 425 ;
426 [label="gini = 0.698\nsamples = 19\nvalue = [0, 0, 0, 0, 0, 0, 0, 0, 6, 1, 6, 0, 6, 0\n0]"] ;
424 -> 426 ;
427 [label="hour_0 <= 0.5\ngini = 0.834\nsamples = 39\nvalue = [0, 0, 1, 0, 0, 0, 0, 8, 5, 7, 5, 8, 5, 0\n0]"] ;
341 -> 427 ;
428 [label="gini = 0.791\nsamples = 15\nvalue = [0, 0, 1, 0, 0, 0, 0, 2, 3, 4, 0, 1, 4, 0\n0]"] ;
427 -> 428 ;
429 [label="gini = 0.785\nsamples = 24\nvalue = [0, 0, 0, 0, 0, 0, 0, 6, 2, 3, 5, 7, 1, 0\n0]"] ;
427 -> 429 ;
430 [label="minute_44 <= 0.5\ngini = 0.866\nsamples = 77\nvalue = [4, 0, 5, 0, 2, 2, 0, 15, 6, 8, 13, 9, 13, 0\n0]"] ;
340 -> 430 ;
431 [label="second_42 <= 0.5\ngini = 0.865\nsamples = 32\nvalue = [4, 0, 4, 0, 2, 2, 0, 4, 3, 6, 0, 1, 6, 0\n0]"] ;
430 -> 431 ;
432 [label="gini = 0.727\nsamples = 11\nvalue = [4, 0, 3, 0, 2, 2, 0, 0, 0, 0, 0, 0, 0, 0\n0]"] ;
431 -> 432 ;
433 [label="gini = 0.776\nsamples = 21\nvalue = [0, 0, 1, 0, 0, 0, 0, 4, 3, 6, 0, 1, 6, 0\n0]"] ;
431 -> 433 ;
434 [label="sensor.0x00158d00066941c9_illuminance_lux <= 23.5\ngini = 0.794\nsamples = 45\nvalue = [0, 0, 1, 0, 0, 0, 0, 11, 3, 2, 13, 8, 7, 0\n0]"] ;
430 -> 434 ;
435 [label="gini = 0.76\nsamples = 11\nvalue = [0, 0, 1, 0, 0, 0, 0, 3, 0, 1, 3, 0, 3, 0\n0]"] ;
434 -> 435 ;
436 [label="gini = 0.78\nsamples = 34\nvalue = [0, 0, 0, 0, 0, 0, 0, 8, 3, 1, 10, 8, 4, 0\n0]"] ;
434 -> 436 ;
437 [label="second_28 <= 0.5\ngini = 0.794\nsamples = 509\nvalue = [158, 9, 155, 15, 31, 31, 1, 18, 17, 12, 25, 28\n7, 1, 1]"] ;
339 -> 437 ;
438 [label="weather.home_rainy <= 0.5\ngini = 0.774\nsamples = 474\nvalue = [156, 9, 152, 15, 31, 31, 1, 12, 13, 9, 18, 19\n6, 1, 1]"] ;
437 -> 438 ;
439 [label="hour_2 <= 0.5\ngini = 0.744\nsamples = 424\nvalue = [150, 9, 145, 10, 30, 30, 1, 11, 4, 5, 12, 12\n3, 1, 1]"] ;
438 -> 439 ;
440 [label="sensor.0x00158d00066941c9_illuminance_lux <= 2.0\ngini = 0.715\nsamples = 387\nvalue = [147, 4, 138, 10, 30, 30, 1, 6, 2, 3, 6, 6, 2\n1, 1]"] ;
439 -> 440 ;
441 [label="gini = 0.826\nsamples = 11\nvalue = [0, 0, 0, 0, 0, 0, 0, 2, 1, 2, 2, 2, 2, 0\n0]"] ;
440 -> 441 ;
442 [label="sensor.0x00158d0001e4ad46_illuminance_lux <= 75.5\ngini = 0.699\nsamples = 376\nvalue = [147, 4, 138, 10, 30, 30, 1, 4, 1, 1, 4, 4, 0\n1, 1]"] ;
440 -> 442 ;
443 [label="minute_50 <= 0.5\ngini = 0.677\nsamples = 334\nvalue = [135, 4, 130, 9, 19, 20, 1, 4, 1, 1, 4, 4, 0\n1, 1]"] ;
442 -> 443 ;
444 [label="minute_2 <= 0.5\ngini = 0.662\nsamples = 324\nvalue = [135, 4, 128, 9, 19, 20, 1, 2, 0, 0, 2, 2, 0\n1, 1]"] ;
443 -> 444 ;
445 [label="hour_20 <= 0.5\ngini = 0.663\nsamples = 317\nvalue = [129, 3, 128, 9, 19, 20, 1, 2, 0, 0, 2, 2, 0\n1, 1]"] ;
444 -> 445 ;
446 [label="minute_18 <= 0.5\ngini = 0.649\nsamples = 295\nvalue = [123, 3, 122, 9, 14, 15, 1, 2, 0, 0, 2, 2, 0\n1, 1]"] ;
445 -> 446 ;
447 [label="hour_13 <= 0.5\ngini = 0.651\nsamples = 291\nvalue = [123, 3, 118, 9, 14, 15, 1, 2, 0, 0, 2, 2, 0\n1, 1]"] ;
446 -> 447 ;
448 [label="hour_1 <= 0.5\ngini = 0.658\nsamples = 275\nvalue = [111, 3, 114, 9, 14, 15, 1, 2, 0, 0, 2, 2, 0\n1, 1]"] ;
447 -> 448 ;
449 [label="hour_8 <= 0.5\ngini = 0.642\nsamples = 259\nvalue = [108, 3, 109, 7, 14, 15, 1, 0, 0, 0, 0, 0, 0\n1, 1]"] ;
448 -> 449 ;
450 [label="weekday_6 <= 0.5\ngini = 0.628\nsamples = 237\nvalue = [103, 3, 100, 7, 10, 11, 1, 0, 0, 0, 0, 0, 0\n1, 1]"] ;
449 -> 450 ;
451 [label="second_53 <= 0.5\ngini = 0.596\nsamples = 183\nvalue = [79, 2, 85, 3, 5, 6, 1, 0, 0, 0, 0, 0, 0, 1\n1]"] ;
450 -> 451 ;
452 [label="hour_0 <= 0.5\ngini = 0.583\nsamples = 178\nvalue = [77, 2, 85, 3, 5, 6, 0, 0, 0, 0, 0, 0, 0, 0\n0]"] ;
451 -> 452 ;
453 [label="minute_9 <= 0.5\ngini = 0.59\nsamples = 165\nvalue = [74, 2, 75, 3, 5, 6, 0, 0, 0, 0, 0, 0, 0, 0\n0]"] ;
452 -> 453 ;
454 [label="minute_55 <= 0.5\ngini = 0.591\nsamples = 162\nvalue = [71, 2, 75, 3, 5, 6, 0, 0, 0, 0, 0, 0, 0, 0\n0]"] ;
453 -> 454 ;
455 [label="hour_18 <= 0.5\ngini = 0.593\nsamples = 159\nvalue = [71, 2, 72, 3, 5, 6, 0, 0, 0, 0, 0, 0, 0, 0\n0]"] ;
454 -> 455 ;
456 [label="second_56 <= 0.5\ngini = 0.58\nsamples = 151\nvalue = [69, 2, 69, 0, 5, 6, 0, 0, 0, 0, 0, 0, 0, 0\n0]"] ;
455 -> 456 ;
457 [label="second_32 <= 0.5\ngini = 0.569\nsamples = 148\nvalue = [68, 2, 69, 0, 4, 5, 0, 0, 0, 0, 0, 0, 0, 0\n0]"] ;
456 -> 457 ;
458 [label="second_43 <= 0.5\ngini = 0.559\nsamples = 145\nvalue = [68, 2, 68, 0, 3, 4, 0, 0, 0, 0, 0, 0, 0, 0\n0]"] ;
457 -> 458 ;
459 [label="weekday_5 <= 0.5\ngini = 0.548\nsamples = 138\nvalue = [64, 2, 67, 0, 2, 3, 0, 0, 0, 0, 0, 0, 0, 0\n0]"] ;
458 -> 459 ;
460 [label="second_31 <= 0.5\ngini = 0.546\nsamples = 126\nvalue = [61, 2, 59, 0, 2, 2, 0, 0, 0, 0, 0, 0, 0, 0\n0]"] ;
459 -> 460 ;
461 [label="second_13 <= 0.5\ngini = 0.546\nsamples = 123\nvalue = [61, 2, 56, 0, 2, 2, 0, 0, 0, 0, 0, 0, 0, 0\n0]"] ;
460 -> 461 ;
462 [label="second_51 <= 0.5\ngini = 0.546\nsamples = 121\nvalue = [61, 2, 54, 0, 2, 2, 0, 0, 0, 0, 0, 0, 0, 0\n0]"] ;
461 -> 462 ;
463 [label="minute_19 <= 0.5\ngini = 0.545\nsamples = 119\nvalue = [61, 2, 52, 0, 2, 2, 0, 0, 0, 0, 0, 0, 0, 0\n0]"] ;
462 -> 463 ;
464 [label="sensor.0x00158d0001e4ad46_illuminance_lux <= 11.5\ngini = 0.545\nsamples = 114\nvalue = [60, 2, 48, 0, 2, 2, 0, 0, 0, 0, 0, 0, 0, 0\n0]"] ;
463 -> 464 ;
465 [label="minute_15 <= 0.5\ngini = 0.546\nsamples = 42\nvalue = [25, 2, 13, 0, 1, 1, 0, 0, 0, 0, 0, 0, 0, 0\n0]"] ;
464 -> 465 ;
466 [label="weekday_4 <= 0.5\ngini = 0.492\nsamples = 39\nvalue = [25, 2, 12, 0, 0, 0, 0, 0, 0, 0, 0, 0, 0, 0\n0]"] ;
465 -> 466 ;
467 [label="minute_41 <= 0.5\ngini = 0.391\nsamples = 30\nvalue = [22, 0, 8, 0, 0, 0, 0, 0, 0, 0, 0, 0, 0, 0\n0]"] ;
466 -> 467 ;
468 [label="sensor.0x00158d00066941c9_illuminance_lux <= 16.5\ngini = 0.366\nsamples = 29\nvalue = [22, 0, 7, 0, 0, 0, 0, 0, 0, 0, 0, 0, 0, 0\n0]"] ;
467 -> 468 ;
469 [label="gini = 0.486\nsamples = 12\nvalue = [7, 0, 5, 0, 0, 0, 0, 0, 0, 0, 0, 0, 0, 0\n0]"] ;
468 -> 469 ;
470 [label="gini = 0.208\nsamples = 17\nvalue = [15, 0, 2, 0, 0, 0, 0, 0, 0, 0, 0, 0, 0, 0\n0]"] ;
468 -> 470 ;
471 [label="gini = 0.0\nsamples = 1\nvalue = [0, 0, 1, 0, 0, 0, 0, 0, 0, 0, 0, 0, 0, 0\n0]"] ;
467 -> 471 ;
472 [label="gini = 0.642\nsamples = 9\nvalue = [3, 2, 4, 0, 0, 0, 0, 0, 0, 0, 0, 0, 0, 0\n0]"] ;
466 -> 472 ;
473 [label="gini = 0.667\nsamples = 3\nvalue = [0, 0, 1, 0, 1, 1, 0, 0, 0, 0, 0, 0, 0, 0\n0]"] ;
465 -> 473 ;
474 [label="second_10 <= 0.5\ngini = 0.527\nsamples = 72\nvalue = [35, 0, 35, 0, 1, 1, 0, 0, 0, 0, 0, 0, 0, 0\n0]"] ;
464 -> 474 ;
475 [label="second_44 <= 0.5\ngini = 0.527\nsamples = 69\nvalue = [35, 0, 32, 0, 1, 1, 0, 0, 0, 0, 0, 0, 0, 0\n0]"] ;
474 -> 475 ;
476 [label="minute_38 <= 0.5\ngini = 0.525\nsamples = 66\nvalue = [35, 0, 29, 0, 1, 1, 0, 0, 0, 0, 0, 0, 0, 0\n0]"] ;
475 -> 476 ;
477 [label="second_29 <= 0.5\ngini = 0.522\nsamples = 64\nvalue = [35, 0, 27, 0, 1, 1, 0, 0, 0, 0, 0, 0, 0, 0\n0]"] ;
476 -> 477 ;
478 [label="minute_42 <= 0.5\ngini = 0.518\nsamples = 62\nvalue = [35, 0, 25, 0, 1, 1, 0, 0, 0, 0, 0, 0, 0, 0\n0]"] ;
477 -> 478 ;
479 [label="minute_16 <= 0.5\ngini = 0.485\nsamples = 58\nvalue = [34, 0, 24, 0, 0, 0, 0, 0, 0, 0, 0, 0, 0, 0\n0]"] ;
478 -> 479 ;
480 [label="sensor.bedroom_entrance_illuminance_lux <= 1.0\ngini = 0.475\nsamples = 54\nvalue = [33, 0, 21, 0, 0, 0, 0, 0, 0, 0, 0, 0, 0, 0\n0]"] ;
479 -> 480 ;
481 [label="sensor.0x00158d00066941c9_illuminance_lux <= 53.0\ngini = 0.457\nsamples = 48\nvalue = [31, 0, 17, 0, 0, 0, 0, 0, 0, 0, 0, 0, 0, 0\n0]"] ;
480 -> 481 ;
482 [label="weekday_3 <= 0.5\ngini = 0.482\nsamples = 42\nvalue = [25, 0, 17, 0, 0, 0, 0, 0, 0, 0, 0, 0, 0, 0\n0]"] ;
481 -> 482 ;
483 [label="minute_1 <= 0.5\ngini = 0.492\nsamples = 39\nvalue = [22, 0, 17, 0, 0, 0, 0, 0, 0, 0, 0, 0, 0, 0\n0]"] ;
482 -> 483 ;
484 [label="minute_58 <= 0.5\ngini = 0.482\nsamples = 37\nvalue = [22, 0, 15, 0, 0, 0, 0, 0, 0, 0, 0, 0, 0, 0\n0]"] ;
483 -> 484 ;
485 [label="weather.home_cloudy <= 0.5\ngini = 0.475\nsamples = 36\nvalue = [22, 0, 14, 0, 0, 0, 0, 0, 0, 0, 0, 0, 0, 0\n0]"] ;
484 -> 485 ;
486 [label="hour_9 <= 0.5\ngini = 0.423\nsamples = 23\nvalue = [16, 0, 7, 0, 0, 0, 0, 0, 0, 0, 0, 0, 0, 0\n0]"] ;
485 -> 486 ;
487 [label="weekday_0 <= 0.5\ngini = 0.397\nsamples = 22\nvalue = [16, 0, 6, 0, 0, 0, 0, 0, 0, 0, 0, 0, 0, 0\n0]"] ;
486 -> 487 ;
488 [label="gini = 0.245\nsamples = 14\nvalue = [12, 0, 2, 0, 0, 0, 0, 0, 0, 0, 0, 0, 0, 0\n0]"] ;
487 -> 488 ;
489 [label="gini = 0.5\nsamples = 8\nvalue = [4, 0, 4, 0, 0, 0, 0, 0, 0, 0, 0, 0, 0, 0\n0]"] ;
487 -> 489 ;
490 [label="gini = 0.0\nsamples = 1\nvalue = [0, 0, 1, 0, 0, 0, 0, 0, 0, 0, 0, 0, 0, 0\n0]"] ;
486 -> 490 ;
491 [label="gini = 0.497\nsamples = 13\nvalue = [6, 0, 7, 0, 0, 0, 0, 0, 0, 0, 0, 0, 0, 0\n0]"] ;
485 -> 491 ;
492 [label="gini = 0.0\nsamples = 1\nvalue = [0, 0, 1, 0, 0, 0, 0, 0, 0, 0, 0, 0, 0, 0\n0]"] ;
484 -> 492 ;
493 [label="gini = 0.0\nsamples = 2\nvalue = [0, 0, 2, 0, 0, 0, 0, 0, 0, 0, 0, 0, 0, 0\n0]"] ;
483 -> 493 ;
494 [label="gini = 0.0\nsamples = 3\nvalue = [3, 0, 0, 0, 0, 0, 0, 0, 0, 0, 0, 0, 0, 0\n0]"] ;
482 -> 494 ;
495 [label="gini = 0.0\nsamples = 6\nvalue = [6, 0, 0, 0, 0, 0, 0, 0, 0, 0, 0, 0, 0, 0\n0]"] ;
481 -> 495 ;
496 [label="gini = 0.444\nsamples = 6\nvalue = [2, 0, 4, 0, 0, 0, 0, 0, 0, 0, 0, 0, 0, 0\n0]"] ;
480 -> 496 ;
497 [label="gini = 0.375\nsamples = 4\nvalue = [1, 0, 3, 0, 0, 0, 0, 0, 0, 0, 0, 0, 0, 0\n0]"] ;
479 -> 497 ;
498 [label="gini = 0.75\nsamples = 4\nvalue = [1, 0, 1, 0, 1, 1, 0, 0, 0, 0, 0, 0, 0, 0\n0]"] ;
478 -> 498 ;
499 [label="gini = 0.0\nsamples = 2\nvalue = [0, 0, 2, 0, 0, 0, 0, 0, 0, 0, 0, 0, 0, 0\n0]"] ;
477 -> 499 ;
500 [label="gini = 0.0\nsamples = 2\nvalue = [0, 0, 2, 0, 0, 0, 0, 0, 0, 0, 0, 0, 0, 0\n0]"] ;
476 -> 500 ;
501 [label="gini = 0.0\nsamples = 3\nvalue = [0, 0, 3, 0, 0, 0, 0, 0, 0, 0, 0, 0, 0, 0\n0]"] ;
475 -> 501 ;
502 [label="gini = 0.0\nsamples = 3\nvalue = [0, 0, 3, 0, 0, 0, 0, 0, 0, 0, 0, 0, 0, 0\n0]"] ;
474 -> 502 ;
503 [label="gini = 0.32\nsamples = 5\nvalue = [1, 0, 4, 0, 0, 0, 0, 0, 0, 0, 0, 0, 0, 0\n0]"] ;
463 -> 503 ;
504 [label="gini = 0.0\nsamples = 2\nvalue = [0, 0, 2, 0, 0, 0, 0, 0, 0, 0, 0, 0, 0, 0\n0]"] ;
462 -> 504 ;
505 [label="gini = 0.0\nsamples = 2\nvalue = [0, 0, 2, 0, 0, 0, 0, 0, 0, 0, 0, 0, 0, 0\n0]"] ;
461 -> 505 ;
506 [label="gini = 0.0\nsamples = 3\nvalue = [0, 0, 3, 0, 0, 0, 0, 0, 0, 0, 0, 0, 0, 0\n0]"] ;
460 -> 506 ;
507 [label="gini = 0.486\nsamples = 12\nvalue = [3, 0, 8, 0, 0, 1, 0, 0, 0, 0, 0, 0, 0, 0\n0]"] ;
459 -> 507 ;
508 [label="gini = 0.612\nsamples = 7\nvalue = [4, 0, 1, 0, 1, 1, 0, 0, 0, 0, 0, 0, 0, 0\n0]"] ;
458 -> 508 ;
509 [label="gini = 0.667\nsamples = 3\nvalue = [0, 0, 1, 0, 1, 1, 0, 0, 0, 0, 0, 0, 0, 0\n0]"] ;
457 -> 509 ;
510 [label="gini = 0.667\nsamples = 3\nvalue = [1, 0, 0, 0, 1, 1, 0, 0, 0, 0, 0, 0, 0, 0\n0]"] ;
456 -> 510 ;
511 [label="gini = 0.656\nsamples = 8\nvalue = [2, 0, 3, 3, 0, 0, 0, 0, 0, 0, 0, 0, 0, 0\n0]"] ;
455 -> 511 ;
512 [label="gini = 0.0\nsamples = 3\nvalue = [0, 0, 3, 0, 0, 0, 0, 0, 0, 0, 0, 0, 0, 0\n0]"] ;
454 -> 512 ;
513 [label="gini = 0.0\nsamples = 3\nvalue = [3, 0, 0, 0, 0, 0, 0, 0, 0, 0, 0, 0, 0, 0\n0]"] ;
453 -> 513 ;
514 [label="gini = 0.355\nsamples = 13\nvalue = [3, 0, 10, 0, 0, 0, 0, 0, 0, 0, 0, 0, 0, 0\n0]"] ;
452 -> 514 ;
515 [label="gini = 0.72\nsamples = 5\nvalue = [2, 0, 0, 0, 0, 0, 1, 0, 0, 0, 0, 0, 0, 1\n1]"] ;
451 -> 515 ;
516 [label="hour_15 <= 0.5\ngini = 0.702\nsamples = 54\nvalue = [24, 1, 15, 4, 5, 5, 0, 0, 0, 0, 0, 0, 0, 0\n0]"] ;
450 -> 516 ;
517 [label="minute_36 <= 0.5\ngini = 0.637\nsamples = 43\nvalue = [22, 1, 13, 3, 2, 2, 0, 0, 0, 0, 0, 0, 0, 0\n0]"] ;
516 -> 517 ;
518 [label="minute_35 <= 0.5\ngini = 0.604\nsamples = 41\nvalue = [22, 1, 13, 3, 1, 1, 0, 0, 0, 0, 0, 0, 0, 0\n0]"] ;
517 -> 518 ;
519 [label="minute_38 <= 0.5\ngini = 0.564\nsamples = 39\nvalue = [22, 1, 13, 3, 0, 0, 0, 0, 0, 0, 0, 0, 0, 0\n0]"] ;
518 -> 519 ;
520 [label="binary_sensor.0x00158d00045d21c2_occupancy_on <= 0.5\ngini = 0.551\nsamples = 37\nvalue = [22, 1, 11, 3, 0, 0, 0, 0, 0, 0, 0, 0, 0, 0\n0]"] ;
519 -> 520 ;
521 [label="second_5 <= 0.5\ngini = 0.5\nsamples = 33\nvalue = [21, 0, 10, 2, 0, 0, 0, 0, 0, 0, 0, 0, 0, 0\n0]"] ;
520 -> 521 ;
522 [label="minute_37 <= 0.5\ngini = 0.486\nsamples = 32\nvalue = [21, 0, 9, 2, 0, 0, 0, 0, 0, 0, 0, 0, 0, 0\n0]"] ;
521 -> 522 ;
523 [label="minute_43 <= 0.5\ngini = 0.47\nsamples = 31\nvalue = [21, 0, 8, 2, 0, 0, 0, 0, 0, 0, 0, 0, 0, 0\n0]"] ;
522 -> 523 ;
524 [label="sensor.0x00158d00066941c9_illuminance_lux <= 21.5\ngini = 0.451\nsamples = 30\nvalue = [21, 0, 7, 2, 0, 0, 0, 0, 0, 0, 0, 0, 0, 0\n0]"] ;
523 -> 524 ;
525 [label="sensor.0x00158d00066941c9_illuminance_lux <= 17.5\ngini = 0.541\nsamples = 22\nvalue = [13, 0, 7, 2, 0, 0, 0, 0, 0, 0, 0, 0, 0, 0\n0]"] ;
524 -> 525 ;
526 [label="gini = 0.0\nsamples = 4\nvalue = [4, 0, 0, 0, 0, 0, 0, 0, 0, 0, 0, 0, 0, 0\n0]"] ;
525 -> 526 ;
527 [label="gini = 0.586\nsamples = 18\nvalue = [9, 0, 7, 2, 0, 0, 0, 0, 0, 0, 0, 0, 0, 0\n0]"] ;
525 -> 527 ;
528 [label="gini = 0.0\nsamples = 8\nvalue = [8, 0, 0, 0, 0, 0, 0, 0, 0, 0, 0, 0, 0, 0\n0]"] ;
524 -> 528 ;
529 [label="gini = 0.0\nsamples = 1\nvalue = [0, 0, 1, 0, 0, 0, 0, 0, 0, 0, 0, 0, 0, 0\n0]"] ;
523 -> 529 ;
530 [label="gini = 0.0\nsamples = 1\nvalue = [0, 0, 1, 0, 0, 0, 0, 0, 0, 0, 0, 0, 0, 0\n0]"] ;
522 -> 530 ;
531 [label="gini = 0.0\nsamples = 1\nvalue = [0, 0, 1, 0, 0, 0, 0, 0, 0, 0, 0, 0, 0, 0\n0]"] ;
521 -> 531 ;
532 [label="gini = 0.75\nsamples = 4\nvalue = [1, 1, 1, 1, 0, 0, 0, 0, 0, 0, 0, 0, 0, 0\n0]"] ;
520 -> 532 ;
533 [label="gini = 0.0\nsamples = 2\nvalue = [0, 0, 2, 0, 0, 0, 0, 0, 0, 0, 0, 0, 0, 0\n0]"] ;
519 -> 533 ;
534 [label="gini = 0.5\nsamples = 2\nvalue = [0, 0, 0, 0, 1, 1, 0, 0, 0, 0, 0, 0, 0, 0\n0]"] ;
518 -> 534 ;
535 [label="gini = 0.5\nsamples = 2\nvalue = [0, 0, 0, 0, 1, 1, 0, 0, 0, 0, 0, 0, 0, 0\n0]"] ;
517 -> 535 ;
536 [label="gini = 0.777\nsamples = 11\nvalue = [2, 0, 2, 1, 3, 3, 0, 0, 0, 0, 0, 0, 0, 0\n0]"] ;
516 -> 536 ;
537 [label="weather.home_partlycloudy <= 0.5\ngini = 0.715\nsamples = 22\nvalue = [5, 0, 9, 0, 4, 4, 0, 0, 0, 0, 0, 0, 0, 0\n0]"] ;
449 -> 537 ;
538 [label="gini = 0.346\nsamples = 9\nvalue = [2, 0, 7, 0, 0, 0, 0, 0, 0, 0, 0, 0, 0, 0\n0]"] ;
537 -> 538 ;
539 [label="gini = 0.734\nsamples = 13\nvalue = [3, 0, 2, 0, 4, 4, 0, 0, 0, 0, 0, 0, 0, 0\n0]"] ;
537 -> 539 ;
540 [label="gini = 0.805\nsamples = 16\nvalue = [3, 0, 5, 2, 0, 0, 0, 2, 0, 0, 2, 2, 0, 0\n0]"] ;
448 -> 540 ;
541 [label="gini = 0.375\nsamples = 16\nvalue = [12, 0, 4, 0, 0, 0, 0, 0, 0, 0, 0, 0, 0, 0\n0]"] ;
447 -> 541 ;
542 [label="gini = 0.0\nsamples = 4\nvalue = [0, 0, 4, 0, 0, 0, 0, 0, 0, 0, 0, 0, 0, 0\n0]"] ;
446 -> 542 ;
543 [label="weekday_0 <= 0.5\ngini = 0.748\nsamples = 22\nvalue = [6, 0, 6, 0, 5, 5, 0, 0, 0, 0, 0, 0, 0, 0\n0]"] ;
445 -> 543 ;
544 [label="gini = 0.741\nsamples = 18\nvalue = [5, 0, 3, 0, 5, 5, 0, 0, 0, 0, 0, 0, 0, 0\n0]"] ;
543 -> 544 ;
545 [label="gini = 0.375\nsamples = 4\nvalue = [1, 0, 3, 0, 0, 0, 0, 0, 0, 0, 0, 0, 0, 0\n0]"] ;
543 -> 545 ;
546 [label="gini = 0.245\nsamples = 7\nvalue = [6, 1, 0, 0, 0, 0, 0, 0, 0, 0, 0, 0, 0, 0\n0]"] ;
444 -> 546 ;
547 [label="gini = 0.82\nsamples = 10\nvalue = [0, 0, 2, 0, 0, 0, 0, 2, 1, 1, 2, 2, 0, 0\n0]"] ;
443 -> 547 ;
548 [label="hour_9 <= 0.5\ngini = 0.756\nsamples = 42\nvalue = [12, 0, 8, 1, 11, 10, 0, 0, 0, 0, 0, 0, 0, 0\n0]"] ;
442 -> 548 ;
549 [label="hour_10 <= 0.5\ngini = 0.756\nsamples = 38\nvalue = [9, 0, 7, 1, 11, 10, 0, 0, 0, 0, 0, 0, 0, 0\n0]"] ;
548 -> 549 ;
550 [label="minute_13 <= 0.5\ngini = 0.744\nsamples = 34\nvalue = [7, 0, 5, 1, 11, 10, 0, 0, 0, 0, 0, 0, 0, 0\n0]"] ;
549 -> 550 ;
551 [label="sensor.0x00158d00066941c9_illuminance_lux <= 17.0\ngini = 0.721\nsamples = 32\nvalue = [7, 0, 4, 0, 11, 10, 0, 0, 0, 0, 0, 0, 0, 0\n0]"] ;
550 -> 551 ;
552 [label="gini = 0.667\nsamples = 6\nvalue = [1, 0, 3, 0, 1, 1, 0, 0, 0, 0, 0, 0, 0, 0\n0]"] ;
551 -> 552 ;
553 [label="minute_35 <= 0.5\ngini = 0.678\nsamples = 26\nvalue = [6, 0, 1, 0, 10, 9, 0, 0, 0, 0, 0, 0, 0, 0\n0]"] ;
551 -> 553 ;
554 [label="minute_21 <= 0.5\ngini = 0.653\nsamples = 25\nvalue = [6, 0, 0, 0, 10, 9, 0, 0, 0, 0, 0, 0, 0, 0\n0]"] ;
553 -> 554 ;
555 [label="second_47 <= 0.5\ngini = 0.642\nsamples = 24\nvalue = [5, 0, 0, 0, 10, 9, 0, 0, 0, 0, 0, 0, 0, 0\n0]"] ;
554 -> 555 ;
556 [label="second_49 <= 0.5\ngini = 0.628\nsamples = 23\nvalue = [4, 0, 0, 0, 10, 9, 0, 0, 0, 0, 0, 0, 0, 0\n0]"] ;
555 -> 556 ;
557 [label="second_58 <= 0.5\ngini = 0.607\nsamples = 22\nvalue = [3, 0, 0, 0, 10, 9, 0, 0, 0, 0, 0, 0, 0, 0\n0]"] ;
556 -> 557 ;
558 [label="hour_16 <= 0.5\ngini = 0.58\nsamples = 21\nvalue = [2, 0, 0, 0, 10, 9, 0, 0, 0, 0, 0, 0, 0, 0\n0]"] ;
557 -> 558 ;
559 [label="gini = 0.498\nsamples = 15\nvalue = [0, 0, 0, 0, 8, 7, 0, 0, 0, 0, 0, 0, 0, 0\n0]"] ;
558 -> 559 ;
560 [label="gini = 0.667\nsamples = 6\nvalue = [2, 0, 0, 0, 2, 2, 0, 0, 0, 0, 0, 0, 0, 0\n0]"] ;
558 -> 560 ;
561 [label="gini = 0.0\nsamples = 1\nvalue = [1, 0, 0, 0, 0, 0, 0, 0, 0, 0, 0, 0, 0, 0\n0]"] ;
557 -> 561 ;
562 [label="gini = 0.0\nsamples = 1\nvalue = [1, 0, 0, 0, 0, 0, 0, 0, 0, 0, 0, 0, 0, 0\n0]"] ;
556 -> 562 ;
563 [label="gini = 0.0\nsamples = 1\nvalue = [1, 0, 0, 0, 0, 0, 0, 0, 0, 0, 0, 0, 0, 0\n0]"] ;
555 -> 563 ;
564 [label="gini = 0.0\nsamples = 1\nvalue = [1, 0, 0, 0, 0, 0, 0, 0, 0, 0, 0, 0, 0, 0\n0]"] ;
554 -> 564 ;
565 [label="gini = 0.0\nsamples = 1\nvalue = [0, 0, 1, 0, 0, 0, 0, 0, 0, 0, 0, 0, 0, 0\n0]"] ;
553 -> 565 ;
566 [label="gini = 0.5\nsamples = 2\nvalue = [0, 0, 1, 1, 0, 0, 0, 0, 0, 0, 0, 0, 0, 0\n0]"] ;
550 -> 566 ;
567 [label="gini = 0.5\nsamples = 4\nvalue = [2, 0, 2, 0, 0, 0, 0, 0, 0, 0, 0, 0, 0, 0\n0]"] ;
549 -> 567 ;
568 [label="gini = 0.375\nsamples = 4\nvalue = [3, 0, 1, 0, 0, 0, 0, 0, 0, 0, 0, 0, 0, 0\n0]"] ;
548 -> 568 ;
569 [label="minute_40 <= 0.5\ngini = 0.862\nsamples = 37\nvalue = [3, 5, 7, 0, 0, 0, 0, 5, 2, 2, 6, 6, 1, 0\n0]"] ;
439 -> 569 ;
570 [label="gini = 0.759\nsamples = 19\nvalue = [3, 5, 7, 0, 0, 0, 0, 1, 0, 1, 1, 1, 0, 0\n0]"] ;
569 -> 570 ;
571 [label="gini = 0.778\nsamples = 18\nvalue = [0, 0, 0, 0, 0, 0, 0, 4, 2, 1, 5, 5, 1, 0\n0]"] ;
569 -> 571 ;
572 [label="minute_55 <= 0.5\ngini = 0.878\nsamples = 50\nvalue = [6, 0, 7, 5, 1, 1, 0, 1, 9, 4, 6, 7, 3, 0\n0]"] ;
438 -> 572 ;
573 [label="second_37 <= 0.5\ngini = 0.844\nsamples = 30\nvalue = [6, 0, 7, 5, 1, 1, 0, 1, 3, 3, 0, 3, 0, 0\n0]"] ;
572 -> 573 ;
574 [label="minute_31 <= 0.5\ngini = 0.72\nsamples = 20\nvalue = [6, 0, 7, 5, 1, 1, 0, 0, 0, 0, 0, 0, 0, 0\n0]"] ;
573 -> 574 ;
575 [label="gini = 0.66\nsamples = 18\nvalue = [6, 0, 7, 5, 0, 0, 0, 0, 0, 0, 0, 0, 0, 0\n0]"] ;
574 -> 575 ;
576 [label="gini = 0.5\nsamples = 2\nvalue = [0, 0, 0, 0, 1, 1, 0, 0, 0, 0, 0, 0, 0, 0\n0]"] ;
574 -> 576 ;
577 [label="gini = 0.72\nsamples = 10\nvalue = [0, 0, 0, 0, 0, 0, 0, 1, 3, 3, 0, 3, 0, 0\n0]"] ;
573 -> 577 ;
578 [label="gini = 0.755\nsamples = 20\nvalue = [0, 0, 0, 0, 0, 0, 0, 0, 6, 1, 6, 4, 3, 0\n0]"] ;
572 -> 578 ;
579 [label="hour_20 <= 0.5\ngini = 0.833\nsamples = 35\nvalue = [2, 0, 3, 0, 0, 0, 0, 6, 4, 3, 7, 9, 1, 0\n0]"] ;
437 -> 579 ;
580 [label="gini = 0.48\nsamples = 5\nvalue = [2, 0, 3, 0, 0, 0, 0, 0, 0, 0, 0, 0, 0, 0\n0]"] ;
579 -> 580 ;
581 [label="gini = 0.787\nsamples = 30\nvalue = [0, 0, 0, 0, 0, 0, 0, 6, 4, 3, 7, 9, 1, 0\n0]"] ;
579 -> 581 ;
582 [label="weekday_4 <= 0.5\ngini = 0.234\nsamples = 39\nvalue = [2, 0, 2, 1, 0, 34, 0, 0, 0, 0, 0, 0, 0, 0\n0]"] ;
198 -> 582 ;
583 [label="sensor.0x00158d0001e4ad46_illuminance_lux <= 58.0\ngini = 0.106\nsamples = 36\nvalue = [1, 0, 1, 0, 0, 34, 0, 0, 0, 0, 0, 0, 0, 0\n0]"] ;
582 -> 583 ;
584 [label="gini = 0.0\nsamples = 34\nvalue = [0, 0, 0, 0, 0, 34, 0, 0, 0, 0, 0, 0, 0, 0\n0]"] ;
583 -> 584 ;
585 [label="gini = 0.5\nsamples = 2\nvalue = [1, 0, 1, 0, 0, 0, 0, 0, 0, 0, 0, 0, 0, 0\n0]"] ;
583 -> 585 ;
586 [label="gini = 0.667\nsamples = 3\nvalue = [1, 0, 1, 1, 0, 0, 0, 0, 0, 0, 0, 0, 0, 0\n0]"] ;
582 -> 586 ;
}